-7.864207507209339809e-01,-6.642107956307115486e-03,-1.962571181315289903e-01,3.334790831229436647e-01,1.330308463202138913e-01,2.985790717863457955e-01,6.466677334840549296e-01,-5.853391125467543032e-01,-7.952363545063997896e-02,7.746102585178524062e-03,4.167777341420657589e-01,-1.675180264443393852e-01,5.587502628321794340e-01,-2.310841452074904045e-01,-1.443283488639074130e-01,1.733080932554753872e-01,-1.095938108881220202e-01,-9.612318677629400065e-01,8.401849667877346883e-01,5.400396880296833846e-01
4.282430500164106646e-01,2.937264763074409757e-01,6.795729865520480084e-01,1.027058313580865523e+00,-1.220638680044326962e+00,1.415881091625605048e+00,-1.580734119166797569e-01,-1.841070814311745185e-01,-1.569084233579208509e-01,-9.353239466713180184e-01,-1.122498414815938705e+00,-3.034172344788151343e-01,9.326674385900428632e-01,-6.141971979053519881e-01,-5.141106042554622890e-01,-9.982283882344350490e-02,-3.875810304133866513e-01,4.081201007665825609e-01,-8.758723743056523459e-01,2.164325948998062354e-01
-1.149425700380525273e+00,1.874691970759423398e-01,1.864394452168082417e+00,-8.312532570262736176e-01,4.217165357679937554e-02,9.077556916561476674e-01,2.870323854519979956e-01,-2.700052041380111012e-01,-4.453969774699542694e-01,-4.734713844483157685e-01,8.679177937206166149e-01,3.230939450014991277e-01,-7.913737366380462213e-01,8.237288800661828059e-02,-7.022616934507478481e-01,-5.459223539699555872e-01,-6.587106898736465599e-01,-1.319929403864653350e-01,-7.175896217255997578e-02,1.099969646183473371e+00
9.305669941897489750e-01,2.381338504309612747e-01,6.561519898230247505e-02,9.902289294736833780e-02,9.108958148173492697e-01,-4.744587285612086869e-01,8.152071804571524583e-01,8.162741517369421773e-01,-2.678891453586811355e-01,8.502529357885423300e-01,2.899082470240284537e-01,4.756270536826860962e-01,-8.177684022168999478e-01,-1.028555669287401914e-01,4.613350318230213798e-01,8.393278227903920863e-01,-1.866835361665736548e-01,4.078223527537084420e-02,-1.671835298491967658e-01,-2.805892423880400055e-01
1.748701433574342268e-01,1.847436552574500401e-01,2.098771090467781431e-01,-4.406726085503849810e-01,-4.558451393355925085e-01,-8.692013677771615043e-01,-1.667705300489489284e-01,-6.184754080409575749e-01,8.252359439722829482e-01,7.779614989724531471e-01,-4.082879126038438944e-01,-6.248678723027389914e-01,5.601173865897159931e-01,-1.064513118391051671e-01,-3.773150226327447454e-01,-6.664785783008328468e-02,-4.421429757593123289e-01,2.727100246376698012e-01,3.805079128449600501e-01,6.629130741864334986e-02
1.300837670328121864e-01,-2.033848139260998888e-01,-2.659857510312419460e-01,4.721761540060406825e-01,2.924508385815049460e-01,-5.996934506706784462e-02,5.927891189162460828e-01,-5.286030237484239391e-01,-2.603675757282635783e-01,2.140498144329649674e-02,2.030448924112108200e-01,-7.223282270717800158e-01,8.768136939647808159e-01,-9.473301700942530212e-01,-2.638859139953837474e-01,7.821565296528774566e-03,-5.612333762412357041e-01,-1.605269797070829618e-01,3.269538453836935421e-01,2.761402432323422640e-01
-2.912645068520968231e-02,9.986112725210967156e-01,-4.539637009141377355e-01,-7.800669428474363842e-01,-9.960224751334104121e-02,3.996989981318981866e-01,-2.773658956176126011e-01,3.084763337178177967e-01,2.850752762898635106e-01,-4.825388603019936107e-01,-2.918772715694737396e-01,4.629861250093160741e-01,-4.360457409670128737e-01,1.080237880429432806e+00,6.001233391914385651e-01,1.718782725615748408e-01,4.640452947876828049e-01,-1.265373493929569382e-01,-2.576699688377845354e-01,-4.080844490114158285e-01
-1.512917400120641576e+00,-8.964286432745914857e-01,-1.594472934264273833e-01,-8.112448072999260962e-01,3.010891963173338848e-01,-1.438815533262647606e-01,-3.069856220675657443e-01,-4.294658309396138796e-01,6.845108967398512156e-01,-2.310357109494377004e-01,1.448438664259789954e+00,2.194882897020496992e-01,-1.187360536603928596e+00,1.156423154786883956e+00,4.930866975006895081e-01,-3.140970301045875601e-02,7.347647026526110854e-03,6.585265886617566178e-01,-2.377580191763882522e-01,4.096311289992004001e-01
9.828270876409415102e-01,-1.319715760528495485e+00,-1.196398335714331518e+00,3.455649301901476678e-01,-5.854330858361722623e-01,-2.157089756309579498e-01,-1.686048714235739432e+00,9.184327606436599734e-01,2.255267285469883184e-02,5.982977880123352410e-01,3.252855326251254398e-01,-2.280516255222716504e-01,1.038854018354049780e+00,7.716422470812214218e-01,-3.517955197802107026e-02,-5.413501045221675613e-03,-5.326168879336463657e-01,-1.935082252137007575e-02,5.162159743597293238e-01,-3.360216453650937130e-01
9.940046999754971191e-01,7.544850759096001225e-01,3.770663419328919574e-01,-6.002722211929731877e-01,-9.896147015428078397e-01,-3.098876213461925211e-01,-6.207851771565635508e-03,-7.175964073839203872e-01,3.498992166369929158e-01,3.365312430667460886e-01,-7.316366569473361503e-01,6.580235586378856416e-01,-5.989703135535051626e-01,3.834227091816093669e-01,-3.580128329257618036e-01,6.351138546572066002e-01,-4.212812479743910377e-01,5.110545486274719051e-01,-1.376422966251939384e+00,-1.102572713128670667e+00
5.201402730086746029e-01,5.348615987589400156e-01,-5.020791240443565062e-01,-2.875785502509333735e-01,5.755317165764516352e-01,5.769952118519936501e-01,-5.026760323723192259e-02,3.941350856774191169e-01,1.799023481500988328e-02,-2.734067682969439916e-01,-6.216654019193479375e-01,-1.167199947160525164e-01,-1.770466445134279421e-01,-1.463437946492749386e-01,-4.573234425005862080e-01,3.819911008178847323e-01,5.733916470797674469e-02,-4.892276011232184474e-01,3.930208848089177809e-01,4.451646316794182212e-01
7.858767225528137113e-01,-6.546232394526822762e-02,-9.154900151332770464e-02,-1.128985445382775676e+00,-2.993610685334732041e-02,-3.703567470740813938e-01,-2.820198529946713606e-01,4.804295476463978920e-01,9.510689039466118100e-01,3.953561025094521897e-01,-2.762504184506160976e-01,-3.664801515315668223e-01,-5.470440824165621885e-02,5.352304473196752843e-01,2.237260776143125407e-01,8.124962921587730591e-01,-4.632031338182197033e-01,4.327998246112578773e-01,-2.018398452948177990e-01,-3.933865056580337916e-01
5.195897445142884097e-01,8.183801884906689583e-01,-8.678593231370790306e-01,1.190621845155301894e-01,-9.657259751467872633e-02,-1.760238102916742431e-01,-3.417575588503901640e-01,2.794936573614900666e-01,7.601660302861591445e-01,-1.671069646264246311e-01,2.731633962794223769e-01,-2.763209477429729444e-01,1.584240728730615666e-01,2.073302356593271500e-01,2.334965004206910888e-01,1.231616791990170490e-01,6.737863708555482667e-01,-4.622234053353269090e-01,2.889140730160438819e-01,-1.654295827608256164e-01
-1.672464348643206422e-01,1.161005945858550437e+00,4.362095796825036786e-01,6.436160475842513939e-01,-7.335218988994905986e-01,6.440433322365672897e-01,2.876586721166178306e-01,5.626619408094208907e-01,-5.535139958700068252e-01,1.587067396606248737e-01,-9.914896464545398524e-01,1.334479881756893971e-01,-5.697986627171076623e-01,2.855399957620382012e-01,-8.206507560758385944e-01,6.264745280599388622e-01,6.442625135667231495e-01,-1.132446436329487049e+00,4.887103839870673427e-01,1.971470825393431270e-01
-4.093050847960383876e-01,5.600848032484051497e-01,1.332921173700755135e+00,-7.279821687543283071e-01,-7.220712403751188280e-01,-1.826758091080096791e-01,1.195433568540113844e+00,-1.181629048679608829e+00,-1.722573602156527717e-01,4.748520309854510346e-01,3.638421572952942329e-01,-3.040205784162304803e-01,-7.396088912345770705e-01,2.723337772109861166e-01,-3.578807337090442187e-01,-2.324044578790610271e-01,-2.017504112568418717e-01,1.079926749736897840e+00,-7.244826721897856814e-01,-1.599121289375824984e-01
5.794606708649837623e-01,-5.040163817069049923e-01,-2.023940674278953411e-01,-3.217618291318979362e-01,3.341177975384553300e-01,4.703664858457364817e-01,1.313081675026241298e-02,3.833744325094280980e-01,3.550598476519835622e-01,2.206979243515362066e-01,-3.657868503246612946e-01,-2.869182229827838548e-01,8.522499392970251941e-01,-7.547162286811547327e-01,2.243488628363709825e-01,3.665815097441323389e-01,2.645928607875266403e-01,-8.421814523697934707e-01,9.307523968056567731e-02,-3.963803167298323715e-01
-4.230824558893331311e-01,2.342587791731088886e-01,-6.416715911093616442e-02,-2.434628849849132526e-01,-3.438716221238595216e-01,4.530384852768122861e-01,5.374085204043334008e-01,7.556342373891358766e-02,-4.992964289603299965e-01,-5.284258337518267235e-01,3.048893384788068373e-01,-3.990085564136734014e-02,-9.044178029996186030e-01,5.754146149884857842e-01,3.870267199336958619e-01,5.161802746874666337e-01,5.496750460558901263e-01,2.706572231232198811e-01,-6.213648968429767994e-01,-1.237473458203332405e-01
6.367257658199133585e-01,-1.019161034746703498e+00,-5.250527480935816005e-01,-1.192802385654030337e-02,3.690420861134959818e-01,5.137291125438320227e-01,5.277541291821653824e-02,4.867606346134083495e-01,1.838128071635216632e-01,-2.740703014250679970e-01,4.931670575605391904e-01,-1.260111009320863951e-01,-4.938512498672438245e-01,-1.418501221086921671e+00,3.328859683010464976e-01,1.171572268084222213e+00,4.279208477367438812e-01,-1.088183082658328082e+00,1.399542817079376666e-01,-6.397266794082227814e-02
2.342560078916453015e-01,-1.879732241899058354e-01,1.110718788579597049e+00,-1.102562573686451719e+00,7.470864794289476807e-01,-8.657051698179960564e-01,1.093118316333004492e+00,6.386678195332555763e-01,-3.840564959446400861e-01,-1.563954325812210999e-01,-4.587768754712452379e-01,1.250351478267582861e+00,-1.577116413164577180e+00,-1.287068471894710353e-01,-6.667933306888734757e-02,3.357713139015049975e-01,-6.976465869646644169e-01,1.085631682742955295e+00,9.703452918703851793e-02,-5.935435536602391426e-01
-9.931654014976980527e-01,2.125033162088488525e-01,3.317745821074933460e-02,4.613123627959997419e-02,1.171342377612891589e-01,-6.513771492025973719e-01,3.035904969541763365e-01,-2.829328954770893301e-01,6.140598060303016359e-01,3.208612417902450553e-01,3.228270328927355659e-01,1.066929604816976018e-01,-7.994353731226874205e-01,3.905449334286884566e-01,2.813473643698799487e-01,4.336463361907712533e-01,3.608025659156011700e-01,4.110257575760007942e-01,3.168197674059717861e-01,-6.263863190527255154e-02
-4.778959922638613411e-02,-6.297473751158430000e-01,-1.242645236664607022e+00,-3.500572572762083445e-01,7.083995885587411889e-01,3.144212061118161622e-02,6.623491778738839486e-02,9.611451576900952309e-01,-1.606106455663083576e-01,-2.662868565078719829e-01,6.497300767950638933e-01,3.604473788611162743e-01,7.692765798934002308e-02,-2.929839670121877071e-01,1.114672628580165137e+00,-1.058682248671517362e-01,8.973615839410226114e-01,-1.086196313359326204e+00,5.519068798152039212e-01,7.265869965156147858e-02
-1.232104309251848218e+00,2.541495992037461349e-01,1.551425588608916772e+00,3.360063070415286735e-01,2.607198940135867504e-01,1.254308127582918653e+00,9.091461746550855150e-01,-2.379668667660661263e-01,-2.061299706505658469e-01,-2.023686620821548432e-01,2.200119853476435183e-01,-1.249868685955337899e-01,6.801035257594429950e-01,-9.205863620727570140e-01,-2.114905969967799948e-01,-1.390607853375373515e-01,-4.253323137400184528e-01,-6.801335825349392739e-01,4.246637796172600954e-01,1.205074767658063983e+00
-8.830558085647539912e-02,6.464094498074791639e-01,-2.202016123640704315e-01,-3.723616147039797708e-01,1.739922197256055930e-02,-1.055937276875814845e+00,4.633105677876140360e-01,-7.027298444833310898e-01,7.170578643448885514e-02,1.105222087838632961e+00,-2.002822565580352487e-01,-5.688884794627009356e-01,1.285689709844277107e-01,-5.827171618573666612e-01,-3.559155633626926440e-01,1.051501075952494091e+00,-3.517004568499271788e-01,-1.196647682410888341e-01,3.917271555197110455e-01,3.601773040066422737e-01
-9.463798886890407713e-01,-7.281919826311923638e-02,-4.145215991652445031e-01,-3.720883110825513040e-01,3.116144751276833103e-01,8.058954328935092892e-01,6.717332469259273964e-01,-1.041022739353838267e+00,-1.204021684686851917e-01,-1.421841237889365228e+00,1.188168720311461923e+00,-4.260222128547935250e-01,3.497281263756499836e-01,-4.271063956397160299e-01,-3.979646147900124387e-01,4.518788015374778366e-01,9.232137596554235159e-01,-1.066656553616050163e+00,-2.728170850826321797e-02,1.316647987220951055e-01
3.862382950161997175e-01,2.728122587215813799e-01,1.400146551199432932e-01,2.540048577640130478e-02,1.723026442710569317e-01,-1.359032812975123072e-01,-2.092894921319378432e-01,5.274835645322137889e-01,-3.756676438858962408e-01,5.828625669232552209e-01,-4.794903370460149583e-01,6.269444048409306136e-01,-4.438093992730998694e-01,1.273615585993806976e-01,-6.210701837700631778e-01,-2.418067427636309275e-01,-1.035218888377184565e-02,1.035351863611346790e+00,-2.257099270350486631e-01,-2.330562329333150662e-01
6.336695530699110179e-01,3.388736264766996631e-01,6.703926093808112441e-01,-1.149095243085578311e-01,3.174161612692007368e-03,-1.251893117106274989e-01,-6.089562436127323730e-01,3.771732621522146944e-01,-1.722602746374385096e-01,-3.803351907109053243e-01,-4.240578974702656212e-01,3.409391730871453308e-01,-4.950936686459411068e-02,1.585617494116771387e-01,-3.049816441797081890e-01,4.160386699999469307e-01,-7.234241306430932994e-01,8.241473633876637006e-01,-4.312977799298957637e-01,1.232588695956579328e-01
-3.577592701701801103e-01,-2.354347148001204870e-01,7.354395092801794265e-01,-2.915202053795257556e-02,-7.657621945167180089e-01,9.578588476015731379e-01,-1.212404584264801521e-01,-2.638981660724421530e-01,-1.475031519919640932e-01,-6.025316145571086857e-01,-3.505781552402708612e-01,4.847995233369374324e-01,1.522462844820780259e-01,-5.230243297530723368e-01,3.572841869706144119e-02,-2.380328875669446287e-01,-4.399094430126508359e-01,1.145801053873111597e+00,-9.914798335912158866e-02,7.818059873551471695e-01
-8.060123958350252638e-01,4.142846816637549279e-01,8.393730708291158304e-01,4.761547567514683998e-01,-1.108888214103626479e+00,6.298154210035334932e-01,-8.092162374176802286e-01,-1.017420554001083666e+00,2.863313277716813543e-01,-7.405183225758144028e-01,-8.769561375463392761e-01,3.825762657179246906e-01,-3.565561621253848235e-01,7.780099652736003346e-01,-1.117931181990453826e+00,-3.036834731846489999e-01,-5.204263918060920702e-01,5.258443957593806894e-01,-3.416146225387254876e-01,4.727872120594938110e-01
2.637175866650571243e-01,-1.885346597708987826e-01,9.143595358494191472e-02,6.873523838125758512e-02,1.291358787144328835e-01,1.611577210530943383e+00,-2.921408298114335986e-02,-4.698310333483619178e-02,5.143494873914720156e-01,-1.226797937436743258e+00,2.201367034183343008e-01,6.489371200232322279e-01,-9.370143678357846506e-02,4.979400706446678038e-02,-3.773003257126252841e-01,-1.336816993931223552e-01,1.749774728845359117e-01,-3.352483181232865928e-01,-5.384405834221014375e-01,3.290339403246391736e-01
2.788515749972991786e-01,3.137418671432905953e-02,-1.186958787377102142e+00,-1.891616487212541275e-01,9.639880276276234505e-02,1.029003764335932436e+00,1.804713823071950329e-01,6.910124728625738344e-01,2.305851944265685238e-01,-5.898977443808775534e-02,-2.093547814183922273e-01,5.320807364092541292e-01,9.395125673414403411e-02,-4.733269739970385470e-01,5.295178383222102214e-01,-4.375659660766865744e-01,1.485174361643640251e-01,-2.696510537752414560e-01,5.788612400115074330e-02,-7.727754283904355592e-01
1.059806942982321143e+00,-4.163365118547191490e-01,-1.351084512560150053e-01,1.948205461968704200e-01,1.308372492411791037e-02,-1.322675830106875505e+00,1.456830721312961929e-01,3.915143565489895838e-01,4.485767759088500894e-01,3.825150392036780200e-01,-1.739693353220715943e-01,-1.399387094277596000e-01,6.580900798216421377e-01,3.698738277810258005e-04,1.458146806227510195e-01,6.531293672618302404e-01,-6.907494923473308512e-01,-8.024295809534416624e-02,1.080822118188913723e-02,3.145084801338260960e-01
1.843341379964782201e+00,4.639954971890250524e-01,-1.790947913040341399e+00,2.192746354030497835e-01,-6.145270898019434824e-01,1.519511482774338618e-01,-2.924576076577187211e-01,4.286495208940357959e-01,1.225380137343583309e+00,1.008312808633999635e+00,-6.006360054564635620e-01,-1.023145055942535908e+00,9.443683203484700694e-01,5.279921082600365356e-02,-7.813114591153985655e-01,1.368181994920447897e+00,2.771658249298878385e-01,-5.158978073842110934e-01,1.016482853017172394e-01,-8.533505836486205975e-01
7.744677762623191075e-01,-5.965075553292412680e-01,3.034274564065873037e-01,-1.146087223290835760e-01,-6.549539348663806493e-01,-1.843233951062159259e-01,-3.175130825375446775e-01,3.799707890965302037e-01,3.600126117033394246e-01,7.037544989995095923e-01,2.521902658422340848e-01,3.400109951037634803e-01,-4.660798363626730834e-01,5.349284089450265789e-01,3.262061471859984962e-01,3.240637874559935683e-01,1.626210783375523494e-01,1.327383006175869573e+00,-4.421904854662883633e-01,3.789529619542429950e-01
-5.768062531252352576e-01,-8.339892552317403410e-03,2.323014000092003539e-01,-1.135970320262204153e-01,-5.513142440156865165e-01,2.160054670270381283e-01,-5.509347350860155368e-01,-7.246534096593402197e-01,4.561292785568635266e-01,4.647229711046025336e-01,6.786837242542765880e-01,-2.460031607671684661e-01,7.609150534289126355e-01,-2.498805563095243820e-01,-1.762893572594300684e-01,-6.060984751681097737e-03,-1.366382752365314368e-01,8.865767324262655569e-01,-4.721100740513853866e-01,3.869079899763738228e-01
2.218617104233562010e-01,-7.242170865841285332e-01,2.293695148440758613e-01,-4.536484911396900799e-01,1.631077829450830463e-01,7.125306829041928580e-01,1.962392197325712739e-01,1.925543544272724505e-02,-1.252455483934284075e+00,-8.892836959010099740e-01,7.649284516750912699e-01,5.902015545533406682e-01,6.202712996064551065e-01,-3.862230007406169952e-01,-9.287645067332130078e-03,-5.451476147061140587e-01,-2.593470522797161615e-01,-8.041298170312662086e-02,-5.936940232543269635e-02,-5.839794522999642856e-01
-4.195666934247548330e-01,6.982028617087542299e-01,-2.532158237175337612e-01,-3.918141493825366695e-02,2.671799443471665689e-02,-8.229486893650406198e-01,1.170996926265380100e+00,-3.487901922083909700e-01,-7.804469810635542570e-01,5.495410033202985378e-01,-5.707382472866279199e-01,-2.455722948324840782e-01,1.975688637434246386e-01,-6.389379248313874493e-01,-5.756751923954617212e-01,-1.998035531226276806e-01,-2.612928164986679236e-01,-8.223624527086258185e-02,1.089995472045434566e+00,-5.398818640209284148e-01
-3.790103612489200691e-01,-1.500773098117291204e-01,1.313644487318503806e+00,5.383789505919791551e-01,-4.814622107723369737e-01,6.271577557356339261e-01,2.751438650075315184e-01,-1.802794460420228950e-01,2.013868689523567734e-01,-9.520733547301700461e-02,5.090360815755434754e-02,2.367019500765264184e-01,-4.476689614269014905e-01,1.062170645219299714e-01,-2.636348880784857851e-01,-6.127018010307557772e-01,-2.393860861454680244e-01,1.066762932486642779e+00,-9.491935004492109140e-01,-3.345464577651479088e-01
-1.249116628146738767e-01,8.158185630707032177e-01,-4.118158210439139544e-01,-1.564188656776021868e-01,-1.033008180947183829e+00,8.701361300350657357e-01,-8.176940635546822156e-01,1.945586784498524735e-01,9.880210684249679520e-01,-1.740233075476972863e-03,-3.948512493147588454e-01,3.645315421283213397e-01,-7.308038117589957805e-01,1.867611847473503173e-01,2.235354535478792093e-01,8.987962012636797615e-01,6.993656375120563817e-01,3.232776181470414234e-01,-4.762279964106355123e-01,3.471593897050382904e-01
3.712578228334663666e-01,-2.657015861614499541e-01,5.856591079871560357e-01,6.954521839249132587e-01,-3.914454015814446408e-01,-7.317387672933890752e-02,4.155937868998308971e-01,4.922673598153632923e-01,-5.603228171411070990e-01,6.026328331559173135e-01,-9.490891818114222112e-01,-3.714064575218137265e-02,1.828712563582425010e-01,-1.194877801464314521e-01,-1.190415387648711132e-01,-8.702671744714207680e-02,-9.997439479851851774e-01,9.887417680145434984e-01,-6.941923132553581288e-01,-3.460468938975808650e-01
-8.883204759925593663e-01,1.198192631625917492e+00,-3.532784259891406098e-01,9.819183309494579348e-02,-7.555888999440644183e-01,3.674104668593336509e-01,-3.220978039162085693e-01,-2.725922081583150858e-01,3.685477125096003198e-02,-3.288114726420505174e-01,-2.041289652332438365e-01,-8.376527314980920513e-01,-3.005284147236460951e-02,-1.366479847816661763e-01,-8.329722035701987437e-01,2.039622178983372391e-01,-3.785705601572288415e-01,-1.196972600618887883e+00,5.093949605902444722e-01,1.223104560975317501e+00
4.509162716536384008e-01,2.871323574818828717e-01,-3.038906835767761216e-01,-8.410333374110736671e-01,-8.799664924423511447e-01,-7.177329646319384748e-01,-7.334124118526417213e-01,-5.235886555689160948e-01,6.139813310456875284e-01,2.337160061177719073e-01,3.164982702488770006e-01,1.604403407321535746e-01,5.076385551724976741e-01,7.357413206383675019e-01,3.886620014161488723e-01,-4.423791651560494143e-01,-6.300179841576222239e-01,1.666882428239929492e+00,-2.148025347044630606e-01,4.667102812899676795e-02
-6.291631031714444156e-01,1.641979668375842250e-01,-1.292233229359698587e-01,-6.711328809065906231e-01,7.936147294318883771e-01,2.608275614536456621e-01,2.409127107379577526e-01,4.121931844579115878e-01,-2.695638153043395935e-01,-4.644569037491411839e-02,4.417641003484246154e-01,4.117575186422812172e-01,-6.820787353650826779e-01,3.367003783556998808e-01,5.405630366313923796e-02,3.621644958617021848e-01,2.432541663293428524e-01,-1.880709399726756326e+00,9.394967685938063751e-01,1.230745989649213445e+00
2.651770809107999449e-01,-7.573950624827138212e-01,4.948144213907765820e-01,2.056072354511464251e-01,-8.228062987520118332e-01,1.312417796740545262e+00,-7.376090116008082731e-01,-1.048391215414758992e+00,1.041604338346159009e-01,-6.882617269924614645e-01,-1.110998828686905922e-02,-2.221753977853870576e-01,4.806774513800839421e-01,-6.227345767269232280e-02,-1.750350033350845103e-01,-2.317617082802048145e-02,-4.504407237337262337e-01,1.650462649571213580e+00,-1.091761296110556057e+00,-4.293375263399202280e-01
8.207459761057745995e-01,-7.133874305484253497e-01,-8.935784031632004742e-01,-7.989480380775396684e-01,5.877624185848143723e-01,8.650148257903176319e-01,7.352793192288152591e-02,5.172379162013686082e-01,3.996756376296534130e-01,-1.090658375802846525e+00,7.381851032689308312e-01,5.308028880118231818e-01,7.969218540504957593e-01,-6.173082528046703876e-01,6.449476838560720404e-01,-1.598940615953209354e-01,4.699019527174668198e-01,-6.664536186936240725e-01,-6.178213150902545081e-01,-5.846315062674337648e-01
-1.116368203686384897e+00,-1.122001998699255987e+00,4.431789807046259688e-01,4.661802946815334914e-01,3.554641100589880365e-01,6.405519281964541234e-01,1.649715811952528755e-01,-3.498085931367003742e-02,-9.487971352467069464e-01,-8.488858677442591150e-01,-1.087469240504315357e-02,-8.810151279933628801e-03,3.790685435402416648e-01,8.294577488977487034e-01,4.548906215304598377e-01,-9.302041044425362060e-01,7.795850334336600351e-01,-6.856902359252784462e-01,2.833550776887209244e-01,-2.033205888474394207e-01
-3.382723513725688913e-01,1.248218616638193001e+00,1.178664654129464306e+00,2.678927735330036697e-01,-2.234229811503309349e-01,2.161465644379718942e-01,1.455081568666199088e+00,-9.617199643677674104e-01,-8.784135108745417808e-01,2.310368683427687364e-01,-9.022058469849830731e-01,3.932388865693515756e-01,-2.448775709707519052e-02,9.030437891796259109e-01,-1.021042141424137739e-01,-2.019793860103167304e+00,-7.715848536925548062e-01,3.694008345689868689e-01,1.599487242324488731e-02,-8.151056760453267991e-01
1.857471048823164106e-01,1.083786736105600973e-01,-9.472806388252147727e-03,1.445068906006476139e-01,5.715366951339702073e-01,2.681527351677687188e-01,6.764024981836163075e-01,1.706557885695773880e-01,-7.234074503310180537e-01,-5.951148732939890440e-01,1.893299940282958671e-01,5.590248135216339120e-01,-2.432818593559310238e-01,-5.944876381257339082e-01,5.002442463296347119e-01,3.167048577102407059e-01,5.891804996068287226e-01,9.412034994689312539e-02,-6.019589467904802316e-01,-2.800408060680746880e-01
3.209060169868289680e-01,3.799572053112892749e-03,1.422961438175441087e-02,1.374721781776436780e+00,-1.953383777039784386e-01,5.540788085582042388e-01,3.172882904718520303e-01,-9.888850509007836020e-01,1.263572634932902672e-01,-2.856945319890736856e-01,5.116321585355778495e-02,-5.362648531614703229e-01,1.424002409999751029e+00,-2.265222110671100408e-01,-1.578731615746356010e-01,4.911317552666321085e-01,3.311801717752493879e-01,-4.069392100011991545e-03,-4.112252462439224820e-01,-5.313286145300266661e-01
3.778502780275213024e-01,1.367790040297180432e-01,-9.468380200632927624e-01,1.282465215766594169e-01,-9.168152740425143665e-02,-1.591474819129564011e+00,-4.071188858980051561e-01,5.204381076979239795e-01,9.352583224112496207e-01,4.915707081900648756e-01,4.277455651682746107e-02,-5.663699199879945745e-01,-2.536436259670488136e-01,9.499869864923955465e-01,-9.374389549144522549e-02,8.917452202405996564e-01,1.009259985042493257e-01,-4.130070310119722254e-01,6.224431106125805080e-01,-9.923464657843941716e-02
-1.689726291445825535e+00,-4.235896454486756113e-01,1.006478234635198588e+00,-3.461969806577886999e-01,3.276958511649618599e-01,-6.833671763585422720e-01,9.228598846336760753e-01,-1.658850252379756363e+00,1.192462473336388662e-01,1.241572176692790075e-01,5.556081364775389275e-01,-1.101740252312685797e+00,3.532797206208926344e-01,-7.921391263428924079e-01,-2.713896211805362224e-01,-9.073331012505073123e-02,3.067221450724617049e-01,1.504131228093499584e-01,1.172026064630346420e+00,6.436517720406056409e-01
3.411826687423828997e-01,7.505895157925976946e-01,4.443979799387416385e-01,-7.368592847218092823e-01,1.825039324316545530e-01,4.982927601516382032e-01,4.660398319161641045e-01,-3.074197458312434850e-01,7.835904694107286295e-01,2.081146951638217779e-01,2.656034186060214353e-01,1.186447925221515848e-01,1.546268810694891027e-01,-4.024901040313583755e-01,-3.270184353149913764e-02,8.147550369269376258e-01,3.171638735943713150e-01,-4.140676204109982050e-01,-5.391482072817546101e-01,-4.553829189791954724e-01
2.640276063563085640e-01,6.203520362969853208e-01,5.548735952797746451e-01,9.967304393522697925e-01,-1.013898841611558410e+00,-7.272495467984696482e-01,3.119949759928383193e-01,3.434790035275663289e-01,-2.641443505860765484e-01,-6.213390177549548039e-03,-8.406084228977758199e-01,3.444821653251061155e-01,-7.429019976461580521e-01,2.021666497306680021e-01,-9.016156006610007712e-01,-1.778384474790713488e-01,-7.731047925049526759e-01,-5.630324613529983507e-02,1.402710266615700939e-02,-4.322309890530478538e-01
2.354072752483595821e-01,-1.144888987830608773e+00,2.604486309192202698e-01,1.216891476691975393e+00,-4.799556533667502234e-01,-3.943101075226982388e-01,5.915139146301723327e-02,2.385740996472567599e-01,-7.906293111094900850e-01,6.067536546065654957e-01,-3.942246197972069655e-01,5.251661832825752496e-01,9.528742468292117351e-01,3.156390764066056565e-01,9.824496658548870220e-01,-3.935102271878129776e-01,1.519003696627570232e-01,-1.432804604957453876e-01,4.796744419073322718e-01,-4.892333382820371335e-01
-3.403095360308207029e-01,-1.845330739354856253e-01,8.203053659906446304e-01,-2.033082611067696388e-01,-3.157477699514200098e-01,4.868991617614957246e-01,-3.256210535678891183e-02,-1.628890046680771253e-01,-3.706116517771945174e-01,-1.044866629727460305e-01,2.582743765774023204e-02,-3.455336433351197112e-01,-2.693898616398794910e-01,-1.316211780404568932e-01,-1.067815269069039980e-01,-1.172886952378450059e-01,-2.234277048058171955e-01,-1.000006478133692311e-01,1.335821453142858051e-01,4.262598147371416402e-01
2.537394370082853290e-01,-3.798534064492326001e-01,6.384456985292975562e-01,-5.684258773673686038e-01,6.625717118627486579e-01,2.971131792111938452e-01,5.504741815944106387e-01,-7.521381648749577709e-01,4.141335128922659092e-01,-3.735244364210837942e-02,6.807424725493457229e-01,2.651313020456221303e-01,1.060333191742030556e-01,-2.622193921448331272e-02,1.947294250689358616e-02,1.051382301027149468e-01,8.392141166548867937e-02,1.185812404042480672e+00,-1.009101276528703073e+00,-4.459819634791523657e-01
5.073414151630217805e-01,1.717367045886903920e-01,-5.985035351065818299e-01,1.710935375256854851e-01,2.120401621648651813e-01,-8.001743125664720346e-02,-6.071434794905011811e-01,-6.587828695865609492e-03,-2.351437449004135372e-01,-5.918915347664809035e-02,-7.774262334175180422e-02,4.287206006028329575e-01,-1.595359936304901194e-01,2.333143740191007398e-01,-2.376320660632599557e-01,-4.734442229287557091e-01,-4.457498254952432792e-01,-2.755703008572937124e-02,-3.373708073949452935e-01,-1.364437566858442696e-01
3.616825062628210019e-01,-5.756827507117077136e-01,3.852713596706241472e-01,-5.622631533664601555e-02,-2.821843908542178703e-01,-1.258463320523725892e+00,4.260810535103192950e-03,9.705286091582109032e-02,-4.969505731121625081e-01,2.386207427803434811e-01,8.341206857163115107e-02,-6.478172636274978080e-01,-6.032466362381350145e-01,-3.765230803725297393e-01,-2.279846014205573201e-01,6.269148987231091263e-01,6.339084892329627241e-02,4.020539092115495844e-02,8.587788734716509387e-01,3.940853751552572670e-01
5.788021315706528558e-01,9.796455287073794205e-01,-6.134881517320749378e-01,-4.885895522181280537e-01,2.805081690865526833e-01,1.457285203591210720e+00,9.347654877749594915e-02,7.486792540082474190e-01,5.078529792967274581e-01,-9.524085048269775866e-01,-7.595832813723121246e-01,5.324937442962993650e-01,3.219478555474345471e-01,-1.085096542397783470e-01,-9.437450504859895561e-01,1.090257157107138858e-01,2.160519415552778488e-01,-1.086882371779187562e+00,-5.445305152824517908e-02,9.002282914367101818e-02
2.519566856611258898e-01,7.589414326074628292e-01,-2.822589215086870329e-01,4.252443239224970029e-01,7.504791008131260488e-02,6.516282037171059471e-01,4.531506568659103285e-01,-5.865128060675678379e-01,3.838482109664453912e-01,-2.231409272541026723e-01,5.033585351545698527e-01,-5.286371226368946630e-01,-8.829062544168991486e-03,2.225267468669044624e-01,-7.051360602243980820e-03,6.206391846424653691e-01,2.254348780730814072e-01,-1.195079630809744442e+00,2.156528945071629899e-02,-1.188900090680270610e-01
-9.336345556633014742e-02,1.389795581983336747e+00,2.869657272240376811e-01,-4.897684771294960604e-01,3.924001476083264772e-01,-1.271018426900002218e+00,3.922537411470048418e-01,1.667422174518932709e-01,5.359955889357206349e-01,5.081284015928140274e-01,-3.231348502782754317e-01,-1.436298039910870183e-01,-7.861535257034562019e-01,2.200256484451188765e-01,-6.395047919951761806e-01,-6.380089542151993198e-01,-4.081415217510577786e-01,6.260345153396381646e-01,3.751374311916206294e-01,-1.474940454375330001e-01
-1.234283191252193879e+00,-1.196046671127283800e-01,2.521383866453635880e-01,-1.500212189631106585e-01,9.555698935896930202e-01,-5.086908489585673099e-02,-2.214062985243315032e-02,-3.786795681836028094e-03,-4.230944749281940753e-01,-4.674164693396662962e-01,4.954994309080468784e-01,9.361999334199913037e-01,-4.291784937208543149e-01,2.826507841772746832e-01,7.758229834844179162e-01,-8.212717745227982036e-01,9.449925234325748380e-02,7.484053889449424068e-02,-5.468297304708930745e-02,3.145364276257692770e-01
-7.130773155015514009e-01,5.310999759800421050e-01,1.097125366011869746e-01,1.297859028804933867e+00,5.277064830949655949e-01,-3.024452114648863987e-01,1.210997752763383284e+00,-2.367334132802770275e-01,-8.188139015585282898e-01,-4.063752690010378199e-01,2.738545297275776225e-01,-1.008512027020539215e+00,3.791454453795972124e-01,-1.084811304344244082e-01,9.673469627239589252e-02,-5.957056487776796194e-01,5.971564047175162981e-01,-1.199078414769928047e+00,1.054917398726595401e+00,2.109272714818091754e-01
1.017278942281021781e+00,5.047888909597247897e-01,-4.184721177762417699e-01,3.176056907726330647e-01,2.482434943315432185e-01,1.924917471731010521e-01,6.242991740835105753e-03,6.829324687291202789e-01,1.356828135993315421e-01,-7.011029218734075030e-01,4.299912510860375014e-02,-1.095559869985805734e-01,7.298262808624736975e-01,-1.401175101486225705e+00,-6.046100408686700955e-01,9.320725997630928406e-02,-4.896441464754350825e-01,-7.819519564910639708e-01,-9.768871518926415531e-02,5.150209283317166431e-01
2.221707836989243734e-01,-3.594653948727766779e-01,-6.750098111857963379e-02,3.038654917346909068e-01,-5.415682401967968351e-01,1.122853599805409885e+00,-4.758376523302947914e-01,4.415999654955910653e-02,-6.746723039156718449e-02,-2.126725965111088135e-01,8.076942791005231603e-02,1.179140155282534380e-01,3.992621429227325575e-02,3.999102401059503320e-01,-1.684795790874947796e-01,-4.304813572157207280e-01,-3.635253683669454894e-01,-3.479583090190785377e-01,6.900554617046626704e-02,-2.802521448259106401e-02
1.373361987886446256e+00,-2.800577658343062493e-01,6.989147185987673594e-02,-1.185983563638261185e+00,4.235654369708186096e-01,-7.915791788937758255e-01,7.860322532388285266e-01,1.102609845772169583e+00,3.148926226747924551e-01,9.933773682731278365e-01,-5.439189771260425355e-01,6.742154155394777248e-01,-8.208997402577283831e-01,-4.065656232809227166e-01,3.917214849820162548e-01,-1.387474238502345025e-01,-1.193966241646915227e+00,6.396952900502546058e-01,2.402281023760238776e-01,-3.222966100588094962e-01
3.512115860116123423e-01,-1.931575010872755085e-02,-1.064251618172126074e-01,8.232918661040321551e-01,-1.272786238469336029e+00,9.721845664395200037e-01,-7.211651890129372466e-01,-7.049889048404305303e-01,3.768907827961541068e-03,2.677613417584816524e-01,-7.834065584622469380e-01,8.957025002176707135e-03,2.977098075276225497e-01,3.248567527194503590e-01,-2.376467820888182036e-01,3.700144341170677476e-01,-6.143539656692643680e-01,1.213599101486550147e+00,-1.267740991672226647e+00,4.836907808062773650e-02
-6.051737953847807772e-01,4.752569418680440694e-01,1.915584417782573989e-01,5.100704770056171400e-01,4.556698923328820205e-01,-3.743094196898810733e-01,3.111423957520705330e-01,1.877405211368345095e-01,4.552587059114750895e-02,2.516333588746174840e-02,-5.422890691724877033e-02,4.256820811998086873e-02,-1.693511812917597725e-01,3.512903496585640939e-01,-5.091591289726096203e-01,-9.008144370910922683e-02,-2.790619209252812594e-01,-1.233380678855234169e+00,6.145718627246020693e-01,7.205008511702775120e-01
-1.377870173191890757e-01,9.598184815784137625e-01,-8.737159838570108736e-03,1.274715583221120108e+00,-7.701407851689744399e-01,-1.122097487784769365e+00,-1.945824869606576912e-01,-1.741388186221439760e-01,4.245072925404851927e-01,9.477826970895431025e-01,-8.986450284677037770e-01,-8.486747362348334711e-01,4.409787128980783288e-01,2.417200632092572354e-01,-8.445293535681754893e-01,-4.001301136721638341e-01,-3.082871650834828961e-02,2.050943438363794502e-01,1.056172823729408794e+00,1.377575330940502413e-02
1.220416041986242470e-02,-3.087771433998420800e-01,-5.452772079375219905e-01,-1.380396854389143169e-01,4.261091016414571553e-01,-1.338420474300987539e-01,1.185913010773944065e-01,2.170106555197082732e-01,-2.390391261518753363e-01,4.174432811630829354e-01,-6.167344280749948587e-02,1.449247552584587428e-01,-8.242317276382234159e-02,4.607196607957765311e-01,-8.005464526934844005e-02,-1.722296206942889318e-01,1.779402592762222290e-01,-2.327839136073660276e-01,-2.609507548550270978e-02,2.545235808946040845e-01
1.540224463503960806e-01,5.744476366279906154e-02,1.444416425915862057e+00,2.289301221133465125e-01,-5.727749290239253499e-02,-4.401682974509534274e-01,1.532198046534172908e+00,1.356052866882218322e-01,-3.002044832441083111e-01,9.285784061717838878e-01,1.400843977002517171e-01,-9.290519087471803550e-01,-8.593102915402538455e-01,-1.591381254042179672e+00,-1.063830401787925872e+00,8.507656414326510985e-01,-1.399129475522346289e-01,-8.326510001669206185e-01,1.447040435138810865e+00,2.325350566754868786e-01
-3.183294958171352107e-01,9.892676436053509104e-01,-2.867453780117683038e-01,-1.907467295879753388e-01,-1.668760050196583522e-01,2.651488212913650777e-01,4.037695643373445109e-01,9.690149946014663396e-01,-6.155119266610398210e-01,-5.632680800524333953e-02,-1.104673148838701963e-01,1.123955209927959553e-01,-3.803884641749423201e-01,-1.236685974778192754e-01,-6.463694205425988271e-01,-1.938189515078828778e-02,-1.380322342835742233e-01,-1.226195089586487486e+00,6.334444023968203163e-01,1.940815080517456215e-01
5.795961460767669049e-01,1.514682786100107759e+00,-1.476555824333909417e-01,-5.350723315319164675e-01,-3.929846737791235500e-01,-1.000358293906333795e+00,1.011549632430511769e+00,4.117616954502493765e-01,4.052968649925476896e-01,4.060967343316450040e-01,1.730867055393185971e-01,-3.576693840148247316e-01,-7.904864682088891259e-01,1.936949662689146645e-01,-6.255414882338184990e-01,6.364110555636892652e-01,-2.987703125828781725e-01,-3.161071791742027792e-01,6.254916643257765196e-01,-2.668828303858612472e-01
-3.525038382423135164e-01,7.691204331668204386e-01,-5.006796082435590600e-01,1.123082811036209411e-01,4.415230184214540277e-01,9.344476723573773569e-01,-6.477613227413180352e-01,3.427934183366458387e-01,1.051211356145527187e-01,-3.383702088249700424e-01,-1.566075690087145589e-01,-4.305028526758026275e-01,4.995770257310795659e-02,-3.213241967478524530e-01,-1.464837843778055149e-01,-1.840693561350382756e-01,-2.811884386337762387e-01,-8.737613897440554833e-01,4.065171455391614619e-01,8.859977701775998415e-01
-1.101385253301144340e+00,4.022956790144393002e-01,5.422417181254083340e-01,-6.372264824782712944e-01,-7.183443069820232285e-01,5.768640267664790766e-01,-1.679818742576650870e-01,-1.059107106853941271e+00,4.675006346645294575e-01,3.558242954688916049e-01,4.365782561266741028e-05,-7.918389654450402881e-01,-1.007458226141721980e+00,-1.196437891486177296e-01,-7.886048319468937917e-01,4.050698309494241700e-01,-5.355777240509904669e-01,6.620149701230688966e-02,9.419314629953895457e-02,7.692242168447946948e-01
-4.446596937868817490e-01,5.673845869685841814e-01,4.439280675684875721e-01,3.681862360449187355e-01,-1.038842182984463847e+00,6.348433181825754446e-01,-6.810759578723861729e-01,-6.791203398326816076e-01,5.363026071307744891e-01,1.925086600697438199e-01,-7.556717416305068769e-01,1.461400792584260644e-01,3.541090053243098890e-01,6.964096752343955643e-01,-8.314308875483630290e-01,-2.403259595148257710e-02,2.494149060518263683e-01,1.164676375462297075e+00,-7.244756332092902040e-01,1.773375317063518308e-01
-3.831105144782100402e-01,4.322817442413589561e-01,4.062080851075824395e-01,-2.082305079400805226e-01,-2.980260427721636574e-01,-7.947226265647996390e-01,8.025686972298071153e-02,-1.990884471202263896e-03,-1.818158799745505649e-01,1.032664292753115332e+00,-2.820130543276125890e-01,2.681329924204538528e-01,5.103731661182921986e-01,1.276302591780942297e+00,7.175839115464665019e-01,-1.182358821052947651e+00,-1.938134606778690316e-01,3.248595618442953747e-01,1.986772006581572492e-01,-8.542327714674675665e-01
-2.504882097545876873e-01,-2.190858598970290561e-01,3.286376570483133808e-01,-8.790114843819271107e-01,-1.215438413464626534e-02,-4.842301251574595011e-01,-1.634022166714567126e-01,-1.593865641671408651e-01,5.424286030755860466e-01,-3.414512247729837302e-01,4.558482781021914731e-01,1.907636373852010792e-01,1.905631693035383378e-01,2.931808912812909340e-01,-1.206839149207850070e-01,8.601364919356818683e-01,6.520546847870068996e-01,1.078089694457381675e+00,-1.309148467247893410e-01,-1.286669941291158047e-02
-1.247898446782960691e-01,-2.364556831948922411e-01,8.149740049705852529e-01,-1.247000067306896609e+00,4.458389748610183667e-01,-5.620409038491485099e-01,5.891049434328331502e-01,-1.113373261939672593e-01,3.868813769553069437e-01,-4.366827706516866470e-01,2.211126981921849033e-01,3.706687642695662976e-01,-5.594285198224775435e-01,3.397577207657797027e-01,3.637092687261654356e-01,1.372161979700594059e-01,4.320704873346710162e-01,1.217644698245587825e-01,-6.243741592341806035e-02,-7.249915171964539662e-02
-1.234875641015718228e+00,-1.425292292289835894e-01,9.316368356800130979e-01,-5.581090922326825687e-01,2.392586748962057322e-02,3.378664398169636263e-01,2.468208539321580797e-01,-1.207843925544985098e+00,2.396232020606657576e-01,-1.084105119261605799e+00,-6.072420685275908142e-02,7.790150515665044129e-01,-3.734923518553505128e-01,9.081911128568264102e-01,1.093681105762037836e-01,-6.136202093963536441e-01,-2.140874737935026528e-02,3.369537489465627700e-01,-8.784792810115150674e-01,1.140268804453827695e-01
-1.391302731914038915e-01,9.416170973600182514e-02,-7.569965210121767374e-01,3.371462097466077501e-01,-4.824577584564497534e-02,-6.648266925815041750e-01,2.597067987969471914e-01,-5.647132879399990868e-01,4.426870851916785421e-01,6.855446549806872847e-01,-1.747835250440777088e-01,-5.173397157975365701e-01,7.589928851424698752e-01,2.338693568433086178e-01,1.739347141798699148e-01,2.905203689918547938e-01,4.667129913124833107e-02,-1.061270321083925272e-01,6.816987354515207098e-01,-9.643515105128284137e-01
-4.468846672040818202e-01,7.309087832597911394e-01,-4.470031209735497030e-02,7.612364834386166068e-01,-3.217071447835109788e-02,1.790748076288915192e+00,6.824610541385376372e-01,-1.278783461950008249e+00,5.253760700000854877e-02,-1.101492273044448078e+00,-7.976753066615036025e-02,-6.408839601562716926e-01,7.869097465440848538e-01,-7.656572217173276407e-01,-8.618733969251380911e-01,-1.549314788736707305e-01,6.900622576638095751e-01,-1.011720944934057176e+00,6.615961040778247648e-01,4.245538040360707054e-03
1.903099601714603739e-01,-8.888574684197081410e-01,8.600527273561967556e-01,6.130547648653562193e-02,1.445248760860023407e-01,1.034030429247627447e+00,-2.570235507932416841e-01,6.001065825214617622e-01,-5.540193608657940638e-01,-3.239560450168894601e-01,3.576841227437239090e-01,5.969891101119875754e-02,2.151546965042325510e-01,-4.651996067654590172e-01,-1.471018939250076929e-01,-4.421173599697260648e-01,-2.979283810791354403e-01,-2.106600861571081285e-01,3.299372591183037939e-01,5.530251733197403263e-01
1.533577917197243567e-01,-2.492788695034902913e-01,9.578621464775229910e-01,-1.436377453336528109e-01,-1.381315931086830373e+00,-5.122464983185122112e-01,-7.448477985969430559e-01,-4.377106025607454542e-01,9.272836173664261716e-01,4.289544639777931878e-01,-3.876682556853804362e-01,-2.537833176947379421e-01,2.054653175596337158e-02,1.407167152752027972e-01,-2.510025037712654838e-01,4.163942517550736633e-01,-3.450360085725949211e-01,1.635398600774209399e+00,-2.966370483300852512e-01,5.573221508068607610e-01
2.322306739058030423e-01,-1.677124867648631390e-01,4.005260888228622806e-01,-2.723277354607295253e-01,-5.546271069223438488e-01,-9.206205225240898793e-01,-1.251834439177200942e+00,6.846364971368380514e-01,5.598991595988838110e-01,1.033491545484293894e+00,-3.692149274115654189e-01,1.521091903958220470e-01,-1.309848756820248539e-01,1.039772546168414191e+00,2.710925044586411439e-02,-1.606325204577286891e-01,-8.912967870770169831e-01,1.613859897679725375e+00,-2.889195714134263834e-02,-4.395235252578414964e-01
-5.331654121202216157e-01,-4.271640038481511192e-01,8.711539676781262509e-01,-1.596853032757041269e-01,-2.231562714023303251e-01,-2.955271675383429053e-01,-3.692604531288646852e-01,1.428164941444114155e-01,-5.062367385074203474e-01,-1.267034514497757391e-01,3.283968061419332285e-01,3.551572850057563985e-02,-1.118509137892860883e+00,2.114066167237972360e-01,-2.226381145670297823e-01,2.967835576166569234e-01,3.520847138362200313e-01,6.674884026470149223e-01,-7.953923596718671662e-01,-1.837537693085216084e-01
-6.199571274188216963e-01,-2.856277638264216878e-01,-2.844466803863044957e-01,1.066912875217527867e+00,1.721740806693500825e-01,6.626353110314062156e-02,4.586015983587033995e-01,-4.106902233633605293e-01,-2.393668820660199356e-02,-1.546870970907282261e-01,5.400258709576457594e-01,-8.306769833126772529e-01,6.708533713765664208e-01,-1.877080054897323491e-01,-6.691026628277021993e-02,-4.386172628819755559e-01,1.295389457709898162e-01,-3.194959339289657474e-01,4.011153730579812837e-01,-3.887442265862019464e-01
3.562151282827114018e-01,2.840913796869032892e-01,-6.055511757521965244e-01,-4.154237532730781224e-01,-1.173093165921597347e-01,-8.407629174003716788e-01,-4.077378221289624238e-01,8.932705741571140834e-01,5.802406176908548874e-01,-5.938198030684973400e-02,-3.998304218610196359e-02,-2.195853508361127193e-01,2.826826812643846720e-01,2.261726184344132751e-01,3.457572726788981088e-01,1.691431198458097640e-01,-1.643156903319084594e-01,-1.781860391435927116e-01,-1.991093260829979728e-01,1.319938879005462806e-01
-3.491706854463454412e-01,-1.189505514930968788e+00,6.617069045393322302e-01,-7.212399405433125299e-01,-4.596782127174784960e-01,-2.055710921667936730e-01,-5.878010401857080014e-01,2.785411882217876944e-01,5.541330680036538059e-01,9.121071197195378399e-01,-3.079116368432473216e-02,-3.292298323128016735e-01,-3.412021191067006187e-01,6.433516603043510917e-01,-2.406496291070898408e-01,4.777762817331690504e-01,2.548307010870740630e-01,1.860410274675133424e+00,-9.452635871317506266e-01,6.127363048967510162e-01
2.260731855216884800e-01,-9.140433335991412500e-01,-5.088116303018096476e-01,-6.281364866982397377e-01,-1.307820617177583022e-01,2.615136249234063098e-02,-7.318452168636625510e-01,-4.992498054894224935e-01,3.507693452430137304e-01,7.962295638307216594e-02,6.027634040561884871e-02,1.937644633613632705e-01,-5.125196112336166676e-01,4.110891171272743061e-01,6.983869779604847672e-01,2.461761867244438851e-01,2.027589966390851706e-01,1.382599124387912770e+00,-5.442764751298879711e-01,-3.873485257625934874e-01
-3.853167758147987842e-02,-4.746228000283733151e-01,1.527501158968849415e+00,3.042172209439999997e-01,2.941311410526343817e-01,1.014614752669423359e+00,9.772943564766893854e-01,-1.880831541665950013e+00,-7.532376641353036861e-01,-1.135799377302274982e+00,7.721600572454018208e-01,-2.804260290235824904e-01,6.810619582460208932e-01,-1.349308100621726236e+00,-2.597807677912986613e-01,-5.027984326575362095e-01,5.926511114996664276e-01,2.365104000535379614e-01,-9.193063798467118741e-02,3.845935667510242406e-01
-6.091732029182673758e-01,-4.949451335541485419e-01,3.609240447545922215e-01,-2.002405242243234518e-01,7.959457848872586450e-01,5.512466172251840879e-01,3.740763827767449312e-01,-9.965180613068963522e-01,-4.014367483807551595e-01,-8.339420293878122559e-01,8.888837692199931251e-01,-5.468902370732200424e-01,-1.355023095582264248e-01,-1.235070336222814813e+00,-5.328244516803272157e-01,1.965131276026094165e-02,4.097498911765265484e-01,-2.742975593786470823e-01,4.093875546462238391e-01,4.665770018214044357e-01
-2.089461843845467348e-01,-3.615482018794364816e-01,7.249544007136368151e-01,-6.366099612550352171e-01,-3.702183062408489350e-02,-8.631536873464381587e-01,6.722075103984284095e-01,3.469635392296069321e-01,-4.965770394894364892e-01,-1.423551531484879007e-01,6.228888086366666244e-01,2.162752764574277509e-01,-6.227981618887352688e-01,-4.513939366961652877e-01,3.242111309482950121e-01,3.467099735937191340e-01,-1.392973895286237773e-01,-2.859025010450938487e-01,4.311531027464031718e-01,-7.166403268773576807e-01
-1.095476699902210083e+00,4.326407329098280741e-01,3.597561117822134502e-01,1.019356158194470341e+00,-3.849579859835113305e-01,9.128022940998919976e-02,-1.334220533559676292e-01,4.382940774103705750e-01,-1.640994538732108987e-01,-8.233606434488245640e-02,-1.071044490720671982e+00,4.145545861580258729e-01,-4.915146253782091690e-01,5.628645505828991924e-01,-3.382794021322177436e-01,-4.619154272901253022e-01,4.114640807958285657e-02,2.600828789530368890e-01,-1.388423661184881308e-01,3.089403440556493519e-01
-7.669364480839334641e-01,-5.860083620011576899e-01,2.577650016169882319e-01,9.903762998912522819e-02,-5.500820863722826193e-01,-7.758327388410055647e-01,1.959568080353412400e-01,-6.306333379742470324e-01,3.703921085485884640e-02,2.196477595236549507e-01,2.854644970924954395e-01,2.875174135941112041e-01,3.971380713909385407e-01,3.508931557654080269e-01,2.672082795238159281e-01,-9.225035920181290372e-01,1.193262749228760217e-01,1.267285450027817895e+00,-3.040277668299783218e-04,1.459903643901357684e-01
-5.980486746495559114e-01,-4.624417641642127319e-01,3.310655366723377346e-01,-6.857893803734143034e-01,-8.753931023782272891e-02,1.524202831176137661e-02,-2.088850321320085135e-01,9.666308139247435927e-01,-1.831263085038487282e-01,-3.898322294386418752e-01,-2.919861687637946290e-01,-1.754549595045000188e-01,-6.000930100800638822e-01,-5.019172146796475609e-01,-2.609975732693450845e-01,5.095619039085224067e-01,1.826465347220188606e-01,-1.149066570372071938e+00,6.773727095148879274e-01,1.396542979485676517e+00
4.456973584558648338e-01,-1.025507697520811501e+00,-5.254602157184907751e-01,-2.043586910676982726e-01,9.483437529233256225e-01,2.150852994669613938e-01,6.558015602293563173e-01,-1.849037573406906720e-01,-1.666027071769120571e-01,-5.502717165913696418e-01,1.039074092808691674e+00,-5.673551315420036767e-01,4.903158340468835030e-01,-1.005803269625243246e+00,-2.128200177284369776e-01,3.026475346868686689e-01,2.086393314618754935e-01,-9.454162661042035953e-01,4.910602030603987700e-01,-5.143347392252581862e-01
-6.242572113248459065e-01,7.947223859395349255e-01,1.047683574372968163e-01,-9.641207575747802183e-01,6.593966818735612634e-01,-8.813478909757830326e-01,6.118445391328658500e-01,5.340385367236238912e-02,-4.166863784628751510e-01,4.404783146728112331e-01,-2.790197078157016786e-01,9.974791620701697337e-01,-5.939125937433614721e-01,7.331993930331167642e-01,2.178506873770684471e-02,-6.644056056595430970e-01,4.929201410011040813e-02,4.498699587916819564e-01,-4.038945528571638022e-01,-3.439015041427137542e-01
8.299629234350001106e-01,-4.793853122205522510e-01,1.233816965999707665e-01,3.654318001017138606e-02,4.111733223344097438e-02,4.662004103951967737e-01,5.018373064862184929e-01,4.042932629014743262e-01,-6.100945211217924102e-01,-2.551356729939149859e-01,-1.245494157044291644e-01,-3.552740199647979047e-01,8.605283294122553772e-02,-7.711503846404599294e-01,-6.540492759900349284e-01,4.667775264606325858e-01,4.372594728422866117e-01,2.096792608750735198e-01,-2.493503887149028375e-01,-3.039084354514430819e-01
-6.799619232146981995e-02,4.024865422102902324e-01,9.276226202203806392e-02,4.062325009106776963e-01,-7.346137213975520996e-01,5.742195951611169802e-01,3.910580809894302901e-01,5.465902398477542889e-02,-1.077502544248969546e-01,-6.748116728600135339e-01,-8.491508384927846098e-01,4.984965864012176895e-01,-2.097007566971799061e-02,1.527299463981877849e-03,-4.550058511300142938e-01,-4.448248993252673644e-01,8.116862025207888243e-02,6.287526121371265209e-01,-5.433545547774508711e-01,-5.228590743514520689e-01
-1.696803478407746604e-02,2.827726712914759299e-01,-3.850538755949959313e-01,-6.463237625684314924e-01,2.083363496086787781e-01,-2.990042093011582303e-01,-6.612830363249910803e-01,1.008372685101942778e+00,-2.187041973584673282e-01,-3.119427645896444626e-02,2.932037813797367387e-01,3.043515693918570908e-01,-1.240312093190723275e-01,1.022685580143235795e-01,1.018249858715408462e-01,4.357118868585647953e-02,-5.791324021810889677e-01,-1.250362227543433180e+00,8.496439435800497986e-01,6.757607958165916529e-01
6.869439228234226480e-01,-3.202601208355460582e-01,-7.931831536551807449e-02,1.360606238901773901e+00,5.887569923834088531e-02,-3.718784119873678184e-01,4.454805221017570371e-01,-5.892904465369698253e-01,-2.373788106607648551e-01,-2.488665408220478159e-01,7.480257859076436810e-01,3.387492142736486800e-02,8.091435021305715125e-01,-6.541892216636278068e-01,7.359550791758908694e-01,-3.226935008821048556e-01,4.994117405615518535e-01,1.851184491014957467e-01,3.810224943701340794e-01,-4.230283053247226865e-01
-4.403312006960899971e-01,1.419940650238065705e-01,2.247299384204126116e-01,2.805498737920154584e-01,3.547271883923261426e-01,2.337960194125512647e-01,4.147721495098596889e-01,-2.413609323854814526e-01,-3.535768056953648153e-01,-6.965084857869263679e-01,-2.425383686846807330e-01,1.114319261017195223e-01,-4.598072676862358099e-01,-1.280319108741146683e-01,2.544746847964092784e-01,5.039722289677472239e-02,5.586867843349121454e-01,-1.045614569908987601e+00,-4.156943510333003799e-01,-5.698482464730179053e-01
3.620699618366262640e-01,5.272000411868342784e-01,-8.188808825821022319e-01,-5.694567048652452446e-01,-5.203610390974369171e-01,1.084892646230274510e-01,-1.363458487002134345e-01,-1.563681183209554848e-01,-2.970203555878253576e-01,-7.391979906733450179e-01,-6.181228494365081927e-01,4.063768168399209402e-01,2.894521305808941958e-01,2.763609038760992953e-01,-5.458419225727841884e-01,1.016451924590490830e+00,5.404847556171742395e-01,-7.725181074733896702e-01,-5.606655634007867706e-01,-6.508480356386772137e-01
3.255586881810469957e-01,2.496269848038940586e-01,-8.997893942480545970e-01,2.435310963893183578e-01,-4.410385760790831999e-01,5.559530024665141346e-01,-1.265631423420747081e+00,5.098442657618244139e-02,5.301495005581912112e-01,-2.341661310221176129e-01,-2.907515000009452955e-01,-4.641156673342571315e-01,-5.336318973369332669e-02,1.991423538322782960e-01,-5.305136672244659124e-01,9.999166446910451311e-01,3.560932411707636303e-01,-2.045501454497335447e-01,-5.023392069217551964e-02,2.390050051766820505e-01
2.596810941916893878e-01,-1.017776553638015224e+00,7.582598786141840908e-01,-2.477898418594793595e-01,-2.292624260462170771e-01,-3.723767959823562346e-01,-2.569245361480368972e-01,3.507696412008487474e-01,-1.330349883121054455e-01,1.091991779506626070e+00,6.654449707573427686e-01,-6.538990359887396631e-01,3.863327211089626068e-01,-4.299601583262366855e-01,3.240033338010218089e-01,6.741374461520461825e-01,-6.851312079355975637e-01,1.061653750123350726e+00,5.542787820672883115e-01,-3.763302437286161761e-01
-2.973264247791588821e-01,3.622000209031987494e-01,1.784989975027355680e-01,2.385793680088910823e-02,4.593742259514596027e-01,-5.203151095738264287e-01,4.399821087455223489e-01,4.667457559548643942e-01,-1.123623841757467462e-01,-2.790280667361041966e-01,2.886395593972315710e-01,-5.621358812378777874e-03,-4.624656429160752258e-01,-2.761884346339241736e-01,-6.028001484970616497e-01,9.500287204412734277e-02,-2.464044703953891316e-02,-5.225167535641055822e-02,-1.159528693398379079e-01,3.141370541028018493e-01
-1.687504101457256156e-01,-8.618995416439754198e-01,7.910909426748835571e-01,-5.841092034422562529e-01,5.222066176250012015e-01,-5.105236575674482191e-01,1.115267494162589489e-02,5.500596903457266595e-01,-4.622566289736769751e-01,2.622257622428865176e-01,-1.779968075827053908e-01,3.187162392594082849e-01,-6.925206583092581303e-01,-2.196784143123760580e-01,7.419729985888730006e-01,1.204049791861331459e-01,-1.762758751285780079e-01,8.137793625570520772e-01,-3.559434830714000020e-01,1.197453799710545275e-01
5.192729371440090169e-01,8.100859165015045216e-01,-1.093541877665806128e+00,3.401831706932884059e-01,-6.313195288764619217e-01,8.748211636437791539e-02,-3.677708807078737263e-01,2.745994072298999500e-01,1.061466877529907649e+00,-4.241828529119340274e-02,-9.083244674506065763e-01,2.145009000435637095e-02,8.189790808482281248e-01,3.572819990331053686e-01,6.829611554782399896e-02,-6.911061040501957908e-01,-4.320518705007346250e-01,2.951871118468084032e-01,-1.718600559599955668e-01,-6.799890459586517277e-01
7.800558355548644629e-01,9.893325734230263846e-01,-1.270082923145964826e-01,-7.842227949703067802e-01,-1.940530221192650062e-01,1.611967098310798374e-01,-5.624502674734624952e-01,5.076094850713445128e-01,9.064420739294317686e-01,-1.360188777667394877e-01,-2.316637601901615218e-01,-2.920789520829270569e-01,-7.373476030036144602e-01,-5.463000528912568265e-01,-5.292314923116764325e-01,1.632506683579078910e+00,-2.943105412211948768e-01,-3.182699565184822776e-01,2.854329335231365478e-02,4.672772562477330305e-01
6.546710214618797763e-02,-3.633726168207149776e-01,-4.668400220598381001e-01,5.738832363185463192e-01,3.970177114122083739e-01,-9.372773484355677587e-01,1.073333343335629797e+00,-6.255746669984931785e-01,-9.523293149132112667e-01,7.628576329355153396e-01,-1.897977288729135181e-01,-3.169952708490667015e-01,2.754354690417327722e-01,-2.316259328044368015e-01,5.851305413732248439e-01,-6.410741407368486522e-01,-7.754931645879038771e-02,5.738560192493808998e-01,5.228607888102819734e-01,-1.204207932650884327e+00
-1.116873999066296141e+00,6.310615870789141324e-01,1.662397899798349621e-01,5.289545510147595220e-01,1.519649910273618010e-01,1.779369910048333336e+00,6.446308327555504425e-01,-7.126939513872078136e-01,-3.333870383333927268e-01,-1.020699092922325191e+00,-1.889642176203333301e-01,6.626956586350845058e-01,1.008925582189654779e+00,2.080329933385868801e-02,-1.337662497913148230e-01,-8.455226191321377760e-01,2.800476373744093528e-01,-1.789010753174564150e-01,3.913049079670793962e-02,1.375801020106487416e-01
3.383293874802372203e-01,3.241037563011147649e-01,1.767794838185545725e-01,3.270099231130429301e-02,-5.466201331916967776e-01,9.211629213360009727e-01,3.611834453916329957e-01,-8.358361175939204024e-01,3.632857834912325279e-01,-2.258895452824102590e-01,2.819408743828952235e-02,-1.076471751796563181e+00,5.432841156251165815e-01,-9.485981847404721945e-01,-9.703286036812914794e-01,1.380558381797224454e+00,-9.931678558970766582e-03,3.247768008781557469e-01,-6.589171569717221510e-01,1.152464982685846850e-01
-6.772306805666382656e-01,4.990569486966973667e-01,1.283494490811962985e+00,-2.920702374515352640e-01,4.554168496602794547e-01,-6.586376257084505248e-01,1.052839946325066167e+00,-8.112711949878878004e-01,-4.106131767908076102e-01,7.169660324052293809e-01,-1.999518230381114037e-01,-1.890762477504273967e-02,-1.614725174098176064e-01,-6.796564122795386576e-01,-1.433788561631824388e-01,9.604564420548154791e-02,-1.147265992617154395e-01,4.635896866992053611e-01,2.336163873585056505e-01,-4.168070689368470055e-02
3.198880472567706690e-01,2.406362983339365436e-01,4.174467550726872200e-02,3.379937005475862066e-01,-7.887802853243707224e-01,4.214665492587361673e-01,-6.868723873825953730e-01,1.123657122549218401e-01,5.747009638908405771e-01,1.996794662031400325e-01,-3.424166393004524633e-01,-3.215457061090707946e-01,1.447587410890044113e-01,1.246285984552137488e-01,-1.049984717666111012e+00,2.049614618024628021e-01,-2.965833604333517060e-01,5.597480346800900453e-01,-4.233138966390905256e-01,8.783768954486793623e-01
1.028052180941950278e+00,-7.866072963764475512e-01,3.166982552577331522e-01,-8.441214852842118255e-01,6.575821711113503110e-01,-1.505048293015550653e-01,-1.598268809978266036e-01,-9.117394296501423259e-03,-3.149664427164662883e-01,3.248289326976336877e-01,8.157327397465920227e-02,6.729417865240012731e-01,5.145658638948346492e-02,-9.640863901789176182e-01,3.448214618946093268e-01,6.970891689543746716e-01,-3.327514380223168654e-03,-7.062927290381790235e-02,-1.887036567036013690e-01,3.725268693458482772e-01
-8.082893987906064615e-02,1.258741594387064594e-02,-2.809859496795681921e-01,-1.296410268273299193e-01,6.171736334355044651e-01,3.446909540071903949e-02,2.410595774628826460e-01,7.727919278711524731e-01,-2.230772524465861606e-01,-9.675819187883148709e-02,3.602639427379579207e-01,-3.745419808117741445e-01,6.239711105657698154e-01,8.406668480636307617e-03,-3.313986520743560094e-02,-4.089192863016369306e-01,3.669660469237218114e-01,-8.075783138478126455e-01,8.286188061447326003e-01,2.146738233467858914e-01
9.686449606205803364e-02,1.483521318688820478e-01,5.775027263532469535e-01,-5.883084127332102176e-01,4.026401921606184708e-01,-4.018602337567134253e-01,-1.016204048114596054e-01,1.885027018413995906e-02,1.483632739432430292e-01,-4.094253674894979267e-01,9.231933810218980740e-01,1.468179271498250560e-01,-1.531138408435058107e+00,-2.837643085014820432e-01,-2.115147698278735944e-01,1.201902281461016297e+00,5.213688318577172076e-01,-6.968865052134879390e-01,-3.780944921313985074e-01,9.289382456833137347e-01
7.329486086660097488e-01,-8.388309801260761256e-02,2.553303682369910399e-02,6.888984640235845669e-01,-4.278327003768031545e-01,4.470238421218565850e-01,2.384468216323757522e-02,-2.037001283233239313e-01,3.631973869549207090e-01,5.644131641913152642e-01,-1.354059169095510606e-01,-1.054543314677594434e+00,1.388313524707193158e+00,2.206676092708325931e-01,-5.914140474754084886e-01,-1.802107862948511552e-01,-2.059006949632059547e-01,7.757448309028559530e-01,5.897068203776882900e-01,-5.599751417080137822e-02
1.156619892657789972e+00,-6.358722322800011151e-01,3.993729523481908683e-01,-1.642759335842822466e-01,-9.995011230576165140e-01,-3.000600164870281250e-01,-7.069286118118554008e-01,2.611114259222737655e-01,-2.294540362624340746e-01,-2.459287259808396256e-02,6.097455333818049134e-02,-5.839059796255086088e-01,5.008957067435274579e-01,-4.982028041841254917e-01,-2.599724667850233373e-01,7.320290552088422054e-01,-2.202894651251066649e-01,2.591780045250410836e-01,2.881296937952321779e-01,-1.113873202792257100e-01
9.314275599054315791e-01,6.582093945492720755e-01,-1.505608684277678355e-01,5.115854552509914444e-02,-3.271802658622191551e-01,-9.103017847518163341e-01,-1.102737760760818253e-01,-9.169107591151840486e-01,4.835928422051514186e-01,8.945911200606573299e-01,-4.106482106792615216e-02,-7.584740369227714885e-01,-8.228055309554120622e-02,-2.648710581728775382e-01,-8.421673620497591162e-02,3.245576192032013085e-01,-5.764833952561504438e-01,8.560840251612850116e-01,6.845000974363356638e-01,-4.445150293013937493e-01
6.160063994609933369e-01,4.186859777902595531e-02,1.153909078359083989e-01,7.656128387931928625e-01,-6.545471541116261172e-01,7.448801644488385089e-03,-4.822830947763133147e-01,-8.309013806542999703e-01,6.777715145834470878e-01,3.443819998924652626e-01,1.510836860285323102e-01,-4.993125815223458663e-01,5.691488575353313983e-01,-9.685836106575849147e-01,-2.513128858050146519e-01,1.893451274128438166e-01,-6.702247603917702579e-01,1.148574859051585628e+00,-6.880158015861979059e-01,-5.386606703521772399e-01
-5.332798990632856562e-01,1.677760429591555746e-01,-1.211136914370470469e-01,-3.999462355675804659e-01,6.042471098446802191e-01,-6.214102658932291190e-01,-6.392599392930585767e-01,1.725512596938190701e-01,6.413187360770913337e-01,1.890893135721070928e-01,2.636182949884732785e-01,-3.352920619886337605e-01,-2.729919550629091307e-01,2.933547438643234195e-01,6.310410461872947296e-01,-2.671688380823593612e-01,-2.178412103454681614e-01,3.256088561969803369e-02,-7.502920957367884003e-02,5.888012813142240454e-01
-1.267922988703609755e-01,-1.996575123981557121e-01,4.604226421228862498e-01,5.131662846861305693e-01,9.293066044047616769e-02,2.513784276511676352e-01,3.111180148362218886e-02,-8.039676162469935328e-01,-5.765784118392640600e-01,-1.948530691208984200e-01,7.858690057315010913e-01,-7.831835055202962526e-01,1.608221886523155675e-01,-6.811625278289622498e-01,-6.268459821986901437e-01,4.260473034671416470e-01,4.504825169830081188e-01,-8.632317530577773845e-02,3.726394901331120391e-01,-2.787433139037951563e-02
2.206570201825471533e-01,1.054306053709713309e+00,-5.399923576512335455e-01,-4.792555050212099488e-01,-2.418016002268658649e-01,-7.069984986341378841e-01,3.362836651665571108e-01,-6.381156360822971829e-02,2.961889480971114375e-01,-6.810081662119767121e-02,1.977768878190649948e-01,-1.441551388077447760e-01,3.216325301610177823e-01,3.537793825220383881e-01,-1.855820595026255737e-01,-2.159423566886433943e-01,4.376400932887724582e-01,1.293109530127180551e-01,5.062842725383317477e-01,2.891322513450765297e-01
1.842598889078157498e-01,-4.405093024522723222e-01,5.931560497903808349e-01,-1.524533555459618717e-01,-2.005684984529025258e-02,1.192639468055357865e-01,3.642553103277869075e-01,4.055884828686063814e-01,-5.265864546562392112e-01,5.964657764809595530e-01,1.416746189177198190e-01,-3.371310924446484225e-02,-6.761369302730297903e-01,-2.617015029728084197e-01,2.138740187666033354e-01,-5.974072450272195356e-01,-9.601781488098531936e-01,2.964709311580210338e-01,3.407318700206609097e-01,-3.819401504878576770e-01
9.973383052776021995e-02,-3.903422074066619646e-02,-1.581884779940982352e-02,-3.548850870902800492e-01,5.909906984567879495e-02,-1.392431131645257003e-01,9.564732290449469154e-01,1.976726741785805354e-03,-4.041877770613724018e-03,-2.035334158664033888e-01,2.765396374319127951e-02,4.834941465855422393e-01,-2.304762139270709609e-01,1.761134420414089408e-01,3.627698082222953202e-01,1.399039417974953618e-02,9.978278332853131316e-02,-3.965282002273431278e-02,-1.313693831916472321e-01,-5.106158006653334080e-01
2.386761225938151543e-01,-5.710489715322935034e-01,1.577853295631004515e+00,-9.504388495040659857e-01,3.737451409310167949e-01,-5.904703810204890990e-01,5.210094625847798699e-01,-1.708320048586377260e-01,-7.777958996214903165e-01,3.467174880613623222e-01,8.078601804295320044e-01,-1.051318376995533377e-01,-4.357136502216469864e-01,-1.277590115859829956e+00,-1.404973923529593827e-01,-1.429246820423589193e-01,-1.734288193008496626e-01,6.831768784339965483e-01,2.065219232961425788e-01,-3.993990852548118253e-01
4.703839768037298419e-01,5.612080183039974690e-01,1.663193594459605462e-01,-2.457599202192753407e-01,-3.772483249054664478e-01,-1.286724558068420343e+00,-1.496403052330965988e-01,7.399934080005863279e-01,2.201153375920925914e-01,6.390387975369640206e-01,-7.600410549799196946e-02,3.020699391270904952e-03,-3.615287731365878776e-01,-6.843797600244279078e-01,9.823460893694101193e-02,7.786705779882623357e-01,-4.725153243834930294e-01,-7.390125355137155960e-02,7.081545760021452640e-01,-1.290625546806181689e-01
