-2.986794714753355229e-01,-1.603388853954079984e-01,4.933250870300840973e-01,3.821199111480600985e-01,2.988563813603195007e-01,-1.293179804274494638e-01,3.826564958451351139e-01,-3.330753170238320293e-01,-7.123054661758061734e-02,1.307596872997066895e-01,-6.600003382434335708e-02,7.692674287646131780e-03,3.034023086565411642e-01,-5.241389818902392195e-01,3.266673219053654181e-02,4.077898539767064734e-01,4.749976750099165201e-01,3.376751867663378426e-01,4.459846967355451386e-01,2.686817410891097491e-01
-4.902020234996441461e-01,-2.729416169909755774e-01,-4.202113406142197749e-01,-2.877019759731785919e-01,4.211730455010454510e-01,-4.694714813723312452e-01,-3.850186732672954970e-01,5.642549508531005120e-01,1.993641541197302691e-01,3.280759745828110696e-01,-1.429280468667200972e-03,-3.291329466894334921e-01,2.525504667745573709e-02,9.778586724055123025e-02,2.848990937970836135e-01,2.954750670202837548e-01,-4.847600714037309522e-01,4.918089749905003027e-01,-1.241974657181780031e-02,2.321704151539093902e-02
-3.359850721848929855e-01,-4.267581694855685503e-01,-2.473165298293437397e-01,-4.818102934151141659e-01,-3.864382397279705339e-01,3.411956200476878309e-01,1.707232091189737899e-01,2.339181634991743808e-01,1.432015791451946296e-01,4.889692892654015632e-01,6.543095924566910693e-01,-4.531519992542644704e-01,-1.568110649604257945e-01,-3.343180019964575034e-01,-8.972147613317822679e-02,3.786411794092293115e-01,2.834831961759496921e-01,-3.581466379603657213e-01,-1.436738443870113832e-02,-1.162623845654083832e-01
-4.399892706711708290e-01,-3.803907724510220967e-01,-1.549348971411063924e-01,2.741717174674301871e-01,-4.595300626530606225e-01,-4.242961055683326377e-01,1.848595209037425663e-02,1.694728447478071331e-01,-2.104590206560094101e-01,-4.228323505979363905e-01,2.818100267071079190e-01,1.260542092383087065e-01,4.266333167597231579e-01,-2.671418112512645160e-01,4.880007919301090902e-01,-1.227483180197630058e-01,1.088932856377151370e-01,4.637805179926408616e-01,-1.662129573811414185e-01,-3.845358526340947880e-01
-3.086324820614480546e-01,-3.699396377392998314e-01,-2.579259483965440913e-01,5.339321267743442068e-01,7.899247300173972697e-02,7.863890060114588076e-02,4.571709237703912021e-01,-2.783895550891682391e-01,-5.358175196962822184e-02,-3.779077664142043158e-01,1.475833596678986503e-01,-9.765499476322535288e-02,-2.687691243223876980e-01,-4.393658406275430250e-01,1.435739032912296265e-01,2.509748778561305960e-01,6.459450049791881643e-01,4.456237549880936455e-01,-1.236490381373666070e-01,-3.372851253522652915e-01
-2.879266388748491501e-01,-5.949828763721740632e-01,3.440787847053946580e-01,7.207261715437230931e-01,-3.135387236816910561e-01,2.603465179828712839e-01,-5.715294124234014950e-01,2.078618122565825399e-01,3.686846980683464170e-01,-7.949611821661572986e-02,3.292262615399524361e-01,-3.158495118766900256e-01,1.050254865079331551e-01,2.680982879761779625e-01,3.077926562004251396e-02,-1.306729587295099582e-01,5.779514821587120599e-01,1.355033520769093891e-01,1.445503068907796340e-01,-2.725342939687830368e-01
4.510373058256198497e-01,5.389054531954968752e-01,1.892754847926050518e-02,-4.425330511331297401e-01,-6.385140758248673831e-02,3.772761365378147214e-01,3.803383798159741258e-01,5.107534687497571335e-01,3.302494566217552274e-02,6.556065516366609003e-02,1.585484940267671283e-01,1.218943994940196451e-01,2.689423313724128572e-01,-1.087490396133041354e-01,-1.212133791630625734e-01,4.396732733574084534e-02,1.728207154843774684e-01,-1.376327271187206547e-01,-1.356969726029806089e-01,2.924226950687563997e-01
-1.706779442240628220e-01,2.355435684829136345e-01,-1.221080706299828567e-01,-1.493181701343540037e-02,5.865930558793162192e-02,-1.216473611633454507e-02,5.472118370701445356e-01,2.815436253195400251e-01,-5.256147604278573748e-01,3.175527841460730749e-01,5.313212119394661315e-02,-4.332526895194795807e-02,1.831899033489598205e-01,-8.041800914825515401e-01,2.455928114236020574e-02,5.252011913874300442e-01,2.402781991451005961e-01,-4.992230926682662551e-01,4.275701802272073304e-01,9.392444939866994025e-01
1.178637315875854658e-01,-1.201818652540643656e-01,-3.486266282588831311e-01,5.193528219304713867e-01,-3.769690794624066532e-01,4.791228614747510828e-01,3.832230810945215782e-01,-3.657951035218132141e-01,-3.456745314286914783e-01,-3.307850008909326012e-01,-2.784400121035239262e-01,1.386643409463094063e-02,-1.758608861679031021e-01,4.029545608688838709e-01,2.445825584576725997e-04,1.770437449853912437e-01,-1.421520477703541452e-01,4.207843647248076246e-01,-1.280662450429137789e-01,2.933396377205753081e-01
9.682702167821803652e-02,3.405712381193464755e-01,3.691192361389586951e-01,-2.085158266347609257e-01,1.862055341646567941e-01,-7.602179497483398107e-02,4.540266788855819025e-01,4.707964439861445083e-01,3.993988930596130138e-01,2.427434115097928669e-01,-3.881705338033976105e-01,4.454962975067600639e-01,-4.135809625940021217e-01,-3.905360669109536609e-01,7.177140677609084030e-01,9.025448315773797192e-02,-4.268943845482641164e-01,-4.101149763916605434e-02,-2.718244676441269880e-01,-2.493131370918005851e-01
-1.208460961155652380e-01,-1.073393104633919293e-01,-1.366727696305534701e-01,-3.381464221931794745e-01,-4.121598173412443500e-01,1.461958014202000278e-01,-1.068411316624348628e-01,-1.173079658936773545e-01,-3.002781730483121692e-01,3.135788409988676806e-01,-4.887839498066043342e-01,4.592101538027876795e-01,-1.876828862111795393e-01,4.451541304219632789e-01,-2.121832214215246537e-01,-1.436527756287210300e-01,-5.108564174269721869e-01,3.333550257432104647e-01,-2.442516484956170908e-01,2.718440639297189376e-01
-3.884458806374225803e-01,-3.774529509352643475e-02,4.733046512715635146e-01,3.178012774870587753e-01,-3.622703607758337441e-01,1.996534810750285049e-01,3.894256223476176559e-02,2.385437777476947518e-01,-2.611589071289554531e-01,-4.752737299652649572e-01,-5.049132864631805662e-01,-5.509591622428831048e-01,-9.401978812171560285e-02,-7.750529852217596938e-02,1.793345817633476003e-01,-2.366240449623778497e-01,1.757053634193940506e-01,-1.855184740638785024e-01,-1.582485308482235176e-01,-3.053516534077144184e-01
-3.994814564664862511e-01,-2.999390852778845498e-02,3.919148022024005473e-01,-4.177580575010355068e-01,-3.481015754752587732e-01,-2.102345980968107694e-02,2.188926013110446267e-01,4.486454078849130139e-02,1.032035752581883237e-01,-1.505617620316990202e-01,-2.731417078519848829e-01,1.083758280005397423e-01,-6.291139840365374269e-02,9.602077317842798443e-02,-2.650347004899177294e-01,4.828320571270409145e-01,-5.759877741984917136e-03,-1.360305540250986156e-01,1.727760426797533277e-01,3.630159118793098716e-01
-3.212225863439624463e-01,-2.963406228815634313e-01,1.989312532263003142e-01,-3.594630892987335513e-01,1.078191996675632175e-02,1.092546460207016734e-01,-4.268374192395367750e-01,5.614430131500129928e-01,1.518065794783946543e-01,5.452199714703087619e-01,1.130371633943388493e-01,3.818700662206652163e-01,4.520502624916191703e-01,2.335288177639466001e-01,2.380365377916571767e-01,9.568952177332257225e-02,-4.664775748894545160e-01,-2.597120167582584460e-01,4.245751898782635925e-01,-6.411478774657014545e-02
-5.089866076188945820e-01,-4.950933141774456758e-01,-2.704979928439783521e-01,2.839999664647430144e-01,1.563681885401649319e-01,3.586571035527999496e-01,3.956765801498105528e-01,8.000124513385135916e-02,2.081618418775549595e-01,-2.846599383440502895e-01,5.638821769627948566e-01,1.722604478842628128e-01,9.328079445298671779e-02,-4.976087826345215737e-01,6.952728515098519635e-01,1.361780095448602776e-02,2.676102530719234873e-01,-4.139470776804760055e-02,3.388098760387001640e-01,-4.460259440957183019e-02
-3.340889495089991446e-01,3.861420138144429082e-01,1.808390593781495541e-03,4.369698769910269065e-01,7.171035982993068103e-02,3.369871451261343132e-01,6.471402560854726260e-02,2.426824750538199293e-01,3.189025655510522861e-01,-5.169656266432594016e-01,4.510793124005845756e-01,-3.647559817553655548e-01,2.079916310261304552e-02,4.265457491561304715e-01,-3.631821025327515162e-01,-4.380471197056844956e-01,5.153525568731714968e-01,4.674960100181495548e-01,-5.285595931296762640e-01,1.436316611549855737e-01
-1.411105157946699606e-01,2.981380810170968787e-01,3.355028942052417640e-01,-4.873967251140498003e-01,-4.334821691979818814e-01,5.060645660418990055e-02,2.753358985038377726e-01,4.915222406508709674e-01,1.481837739121723840e-01,-1.726852955211552743e-01,-1.258294809373144418e-01,8.473527639835277958e-02,2.951233503736361841e-01,-2.772038797680139166e-01,-1.746705617210028982e-01,-3.155347183084998286e-01,-1.188903067852775802e-01,-2.563334346814382658e-01,4.089878995355020197e-01,3.797602055345027927e-01
5.320412480521075071e-01,-2.339067859664832605e-02,-2.907490586513797326e-01,5.309145365167687869e-01,1.943020754146744175e-02,2.405532670509004101e-01,-1.403787313604509535e-01,-4.000903051086338036e-01,4.093245697863454602e-01,2.748064559364338799e-01,-1.589333008351451748e-01,-5.167859296600627039e-02,5.759400922732696992e-01,-1.007060081328176732e-01,-4.705695710939130083e-01,-2.778668040410027240e-01,2.931336691624832347e-01,-4.695442232369915758e-01,2.637554653942185690e-01,-3.924500569736952826e-01
-5.476955668651549702e-01,1.990433309585119270e-01,3.729697094393647494e-01,-4.716501795156093912e-01,1.245094449318038810e-01,1.829907688381143122e-02,2.951654753449490035e-02,-5.986276095586798469e-03,6.048163374633058753e-01,4.417355243147372685e-05,-5.807235002262367551e-01,5.236922130544042764e-01,-1.698776070067637145e-01,-4.907336864344388760e-02,2.765057587400720357e-02,-4.099857397057997677e-01,-4.627502929521535857e-01,1.227430729654847008e-01,-1.132010702112438427e-01,-5.182721259300404615e-01
-2.942091116252211758e-01,8.261381240604880050e-02,7.030018012754545020e-02,-1.490324055589632435e-01,-4.494595917913367100e-01,-1.253511946728750048e-01,4.222549960847924444e-01,-5.079709541703029130e-01,3.359919294138058454e-01,-1.837868816110715120e-01,-4.076486019484874546e-01,2.930694411647895015e-01,-4.310227251744339627e-01,7.154158647463294829e-02,9.774025018082789507e-02,-2.220084199967173599e-01,-2.130874386163936207e-01,-1.146219774770824290e-01,8.046636974191799518e-02,2.093519148942693253e-01
-9.499231579300160266e-02,-3.622171004467064637e-02,-4.613124523426209156e-01,-1.870426256939743404e-01,2.772882045279568830e-01,3.780514401028415294e-01,-4.939378270374285007e-01,3.937293778039699932e-01,3.432875004018084986e-01,-5.075881332469470708e-01,4.532645562980286424e-01,-4.622928567327314608e-01,5.748048013009878776e-01,-1.417401063770314107e-01,-4.760933726198071647e-01,-3.359055842118823798e-01,4.637964116339340359e-01,-4.289355084811269925e-01,-1.027621191061970363e-01,-2.525342878235879718e-02
-1.163527069142906850e-01,-2.099061454013817218e-01,-5.584333775575578418e-01,-6.379189885308704788e-01,-7.082555561664231891e-02,-3.837258295411184461e-01,-1.375113968592190650e-01,5.148142979160263977e-01,4.544478398718672096e-01,-4.078815180820363206e-01,-8.409833001606489833e-02,3.992667387621464115e-01,-1.304939888606986287e-01,-9.947828596630091391e-02,-1.840830400239032438e-01,-3.934413343836488663e-01,2.219096527847199130e-01,1.661321481809922562e-01,3.154008958046361499e-01,-4.493970719316638940e-01
2.406651557385264262e-01,-3.165928469890129660e-01,2.958939181876401592e-01,1.284646673245118942e-01,1.667774704093868687e-01,-3.572652528871327893e-01,1.156110845224287906e-02,4.399734839075106034e-03,-1.229693063655502155e-01,3.020930603827041705e-01,-1.276892225894432908e-01,-4.491499873354335426e-01,-4.039872706138122882e-01,-3.104037555891690503e-01,3.294019531181486826e-01,2.615793408046414581e-01,4.105429931786793163e-01,-1.748501357814204182e-02,1.583759773473431831e-01,-2.467180955953115484e-01
-5.322897001431722841e-02,-1.451170564383534867e-01,-2.960474199446103682e-01,2.465886944941270489e-02,4.059555072529367203e-01,-2.488139018042489214e-01,6.312785698164975479e-01,-2.064339766180846580e-01,-5.659900081206399314e-01,-3.281878861716658324e-01,8.197569438076004328e-03,2.207139919100979120e-01,8.259873271611731238e-02,-5.188477355828038373e-01,8.800803272093325746e-02,7.600347244972477379e-02,-3.085950241574610953e-01,-2.174430743080244532e-01,6.244180172474972368e-01,2.138139355542953424e-01
-3.660709077745704643e-01,-8.733090050661926340e-02,-8.123056085290358830e-02,4.877024247732071882e-01,-2.088396738935711094e-01,3.391252236726284841e-01,-4.826343411509513293e-01,3.473021378040321849e-01,4.164019396016352959e-01,-6.018384142037826179e-02,2.365549132372928853e-01,2.124654547556220352e-01,2.924061060956102409e-01,4.470852785390507789e-01,-5.808871265194017613e-02,3.236384086609094823e-01,-4.569886800081769396e-01,3.300374491169901781e-01,-3.019597803541774206e-01,-2.273956668727347349e-02
-2.000062416864736847e-01,5.650194644923416110e-02,3.886208269736806109e-01,-3.847856921669697006e-02,4.497973352799981561e-01,2.530809714284735223e-01,-1.988654801346854128e-01,3.146828422480890675e-01,-2.387793571534948256e-01,3.656429628534525050e-02,-5.601216796657281227e-01,6.251189787299382683e-02,-2.827641318655575442e-01,-1.662584244817984780e-01,5.190622892155142276e-01,-6.481464489631172388e-01,-5.948392425205988321e-01,4.153089322317599086e-01,-3.658644417433364882e-01,4.083502984351080611e-01
4.886765865167728706e-01,-5.158665723024981054e-01,-1.076573210265359404e-01,4.811475407116722613e-01,5.685832437070027084e-02,-4.105930216576582081e-01,1.842376799683254074e-01,-2.708686730160358436e-01,-4.859101435037211508e-02,3.484885158509547498e-01,5.664155715672405389e-01,3.718993615188877500e-01,2.472200900495118425e-01,2.707593343707171418e-01,-1.064874972237073864e-01,-4.793888836343843107e-01,-2.761440538587877080e-01,-3.397317432383800684e-01,-1.454556272278453577e-01,2.609874820342825141e-01
1.611196892948115744e-01,4.411004819979328362e-01,-2.037000365273843316e-01,-2.176208953868064289e-01,-4.129797313223135258e-01,7.852722768424658106e-02,3.227684341243691746e-01,-2.561074497334552835e-01,3.060315403019495117e-01,7.828680557880530744e-01,3.545821135715140904e-02,2.764652174655378714e-01,3.331876927126260768e-02,-6.204961764709054917e-02,-3.110508368928414091e-01,1.507067039608795400e-01,-5.497757833906257163e-01,-4.000277965720296369e-01,-1.982069265550717996e-01,3.972940065462971515e-01
-2.705827754299431351e-04,-3.340449167250141294e-01,3.362158047732210497e-01,1.801047885046724861e-01,-5.183926623664836253e-01,-3.330800515373111281e-01,-2.413969581310264068e-01,-5.868231887172283695e-02,-2.129905550219983734e-01,6.365060674218774306e-01,5.595561150467663891e-01,2.504697945174053642e-01,2.926383113832393135e-01,-5.433703770410519551e-01,3.333337001249446763e-01,4.046110144642580675e-01,-1.159711044391811413e-01,3.842397881769716306e-01,-8.078643884351303928e-02,-3.456233321432299332e-01
-2.315080273317976778e-01,-1.550982320017472993e-01,-5.658614360314054292e-02,-5.566685543171231432e-01,-2.341864936591351309e-01,-2.030501627807264065e-01,-8.030835304647744588e-02,-3.222243730046805282e-02,-2.998334562784178425e-01,-5.093919684310344032e-01,-6.001865082569817211e-01,-2.012793919869185211e-01,2.870674688098840410e-01,3.498685164308882878e-01,-4.491026024406248318e-01,-1.562665483297205893e-01,-1.876081172063964742e-01,-3.456608568274083249e-01,3.291430196612805670e-01,-3.674962091550034171e-01
4.545709920386813985e-01,-5.392589668318703566e-01,2.969347117675203984e-01,1.003764533766736550e-01,-3.351563566484869194e-01,-9.997664937609695990e-02,2.411237012920476944e-02,-4.915358045261756792e-01,1.660201342348862630e-01,-2.413309193132993358e-01,-1.745161362284802786e-01,2.530295477003757232e-01,2.926189227916470292e-01,-1.581690092317676044e-01,-2.723603861137842141e-01,4.309023494691287537e-01,-2.280674052922404826e-01,5.464853227586204953e-01,-2.655476151432266119e-01,1.707811145709224043e-01
4.053098886742757534e-01,-3.476408881978891863e-01,-1.355221232867878656e-01,6.527533535735462467e-01,5.930918538294716741e-02,5.010293369307243783e-01,4.230175530603950129e-01,9.087056252129420419e-02,3.821908885507998566e-01,-3.531909162216462228e-01,-1.063428729862436889e-01,5.182685187490329026e-01,1.622663999104674848e-01,5.837831879016279757e-01,-3.782698421891917961e-01,-2.014826480258917751e-01,-2.542955378456567828e-01,4.475665756838373976e-01,-3.393029684060495099e-01,1.171558296672645938e-01
-4.491610338541247582e-01,3.794824772676675395e-01,-2.276950072357531440e-01,1.817081847753060087e-01,-6.458518309736052676e-02,5.585104298200017636e-01,6.348696676907647149e-03,-5.276724853794304004e-02,6.652216726213338038e-01,3.580284725675313418e-01,-3.874346932308622704e-01,2.481914599020663137e-01,2.267213952565910184e-01,-1.958984121720745986e-01,-2.961451516639792003e-01,-2.504115495501730293e-01,-5.328973446189668728e-01,-3.587549285975245583e-01,-1.652590963413106129e-01,4.163766931675501048e-01
2.205439191282324018e-02,-4.847370008979076106e-01,1.885277181315198891e-01,-9.640572699537861001e-02,-2.673183184700036463e-01,5.707954245380991720e-01,1.989638695786448142e-01,3.069740292290059624e-01,-5.250356530997511983e-01,5.112739953951203065e-01,2.576367804463879363e-01,1.172739388595281096e-01,-3.582484701317277809e-01,-6.553553016339093151e-01,-2.770190820321926095e-01,2.979428413441663759e-01,-1.596672836585414923e-01,-3.600116379128469046e-01,-4.459006764015461255e-01,3.896226618104480788e-01
-2.726866914582645185e-01,2.987068418578028295e-01,2.265033144304686996e-01,-1.754647140095231816e-01,1.581266046268356776e-02,4.093997519066414070e-01,-3.255104178366474144e-01,-7.616304232015413955e-02,4.241049858113599136e-01,1.888064543838811893e-01,-2.518205212651077884e-01,-7.145780306976678986e-02,1.719194098173077168e-01,-1.218654938937818732e-02,8.488994857348773626e-02,4.158331602052772746e-01,-4.921506671067347738e-01,3.339584777591047549e-01,3.102530048304137367e-01,2.088486128947287246e-01
2.672945743259260154e-01,1.639188942657071602e-01,-4.870566806822263506e-01,-1.492096452222846092e-01,4.799585224146150075e-01,-2.727096950670569453e-01,-1.573027810166425233e-01,-7.135679372390464625e-02,3.776534695309783363e-01,3.585741638258307384e-01,1.695385782094963878e-01,-2.774270935729996612e-01,3.895274176533291555e-01,4.254158093783639294e-01,3.218946733709547869e-01,3.466938244386972290e-01,3.820596123436791336e-01,-1.242087850936044249e-02,3.359798003797908050e-01,4.706138706883566253e-02
-8.935171145721669539e-02,-2.946030180234093243e-01,-4.814916226770811769e-01,-2.438031900917972672e-01,7.461989622698884939e-02,-2.763131870936518797e-01,3.228679279981953587e-01,3.293450480521094015e-01,-3.401210339902945301e-01,-2.336704388342124294e-01,3.551672640920399138e-01,-3.183406902765650304e-01,-5.015460981994908085e-01,-5.490581275931121219e-01,4.549626489987823041e-01,3.808693889958391088e-01,1.010629504449730293e-01,-2.706573293437699590e-01,-4.611021394408015839e-01,-6.177267755476884697e-02
-1.109451141109396161e-01,-1.699531038458332310e-01,5.710900989252571947e-01,-4.944045558863663925e-01,-4.150543383394154628e-01,6.065567817171995113e-01,-3.721343079614951588e-01,-1.583746286837282857e-01,5.077503198456811973e-01,5.734874167163888092e-01,-3.054563152847449281e-01,4.595815385402554076e-01,-1.906657142051333409e-01,1.404006088255813356e-01,-1.865802441722252958e-01,1.090039604902224707e-01,-4.867857910836848601e-01,-4.175379805944579581e-01,1.449840974923962411e-01,5.884366710977186055e-02
-4.626280359394523423e-01,-1.269354373538540137e-01,-1.168900151492520828e-01,-4.536020946819206423e-01,-3.858656031431955125e-01,4.287357832910556610e-01,2.561813659581141378e-01,-2.872813921609705390e-01,3.984593657001176403e-01,-2.308420445294021017e-01,2.186530148876485169e-01,2.616989540265880487e-01,-4.235733348120713782e-01,-2.606249858400344066e-01,2.093205545597449230e-02,-5.446090219220585116e-01,4.364565248372591078e-01,-7.852328961845103997e-03,-3.287234298008019917e-01,-5.793015599557689299e-01
1.123925201841928373e-01,1.009538764526928117e-01,-4.821857603668635583e-01,-2.784801805101668748e-01,-6.484046620148838092e-02,-5.178268920727353564e-01,2.210847178095779464e-01,-2.195098415323505914e-01,-3.345037643898798319e-01,-4.783654912015110061e-01,-8.612133466785949765e-02,-1.830203334352843991e-01,5.443062996380625407e-01,-5.734058744564877186e-01,1.686905549556573791e-01,-3.052030159362000838e-01,1.667931908043815692e-01,-6.492912540309613879e-03,-3.958815459939089010e-01,2.946387992672445666e-01
3.507226382526796860e-01,-2.142634647645392798e-01,-4.582149597482863129e-02,2.195194443588316668e-01,1.918150484673082634e-01,7.381997518504218592e-02,-3.546730776379410366e-01,2.275651317608962665e-01,-3.722172192522937295e-01,-5.743072476549712646e-02,-2.596580915202199580e-01,1.139067615266957656e-01,-2.262978865257468108e-01,-5.379556426437024502e-02,3.682420613205812931e-01,3.319948440088975050e-01,1.269096140047465682e-01,1.275718087764146080e-01,4.159999423871462709e-01,4.667779671790033835e-01
4.486795220182331900e-01,4.846819490181604739e-01,4.335275363400655224e-01,1.043977402038571145e-01,-1.137620789786427111e-01,3.479962434001086513e-01,-1.257148399912693670e-01,2.448148410017147170e-01,6.122220515630698578e-01,1.879166609908092950e-02,3.057179118817776042e-01,4.490197597083078751e-01,6.767333652229506891e-01,1.306443245260411612e-01,-5.585097060835991778e-01,-5.445691696502013013e-01,-2.077191617958599468e-01,4.403284951778645429e-01,2.403951944276155051e-01,-2.613445425356938565e-02
2.377257577287500423e-01,-2.262585795668714539e-01,2.071962003818796916e-01,2.389729486107480816e-01,8.009423540118833229e-03,-3.915902877951122352e-01,1.595843398077911035e-01,2.157601999832407247e-01,-4.807878608460012249e-01,2.482077002532215304e-02,7.293280510426183860e-02,1.569629938166672012e-01,-7.847633963866708362e-02,3.137066459576863808e-01,2.249173330818340089e-01,-1.448089211546733091e-01,2.865800532610188883e-02,3.648912645842881664e-01,1.733849672597838343e-01,5.973789280179284122e-02
-2.051055961028898644e-01,4.445062944186717879e-01,3.782201123316871749e-01,-2.253891943787768859e-01,-1.392141015825026362e-01,-1.982292056735623087e-01,-4.783238949637571430e-02,1.812812913792896108e-01,-1.103458617471724940e-01,2.986844924752140029e-01,7.712588063943066896e-02,-2.587776373526627371e-01,-2.062672179213552726e-01,-2.338270964418098785e-01,-1.153846865512302422e-01,-1.490645769944803078e-01,7.562003200790567981e-02,4.359261951454083683e-01,5.594115071603483758e-01,-1.990399167594781582e-01
4.136118076955531686e-01,-3.447448294428142601e-01,-1.065304234647670434e-01,-5.080536730193709882e-01,-3.546959896714692584e-01,-2.987733500608849568e-01,3.645381244967157985e-01,-1.498375298468562766e-01,-5.160474258289214911e-01,3.157863648651026423e-01,-3.603717302263272915e-01,1.950201295482869787e-02,-7.073042376674643084e-02,-1.036443830757374368e-01,9.745547876001849075e-02,-4.156534763306145019e-01,-2.212972269984070095e-01,1.758830012617614846e-01,-1.123300558883740669e-01,-4.615522405140827233e-01
-4.258210929919754029e-01,4.860851192028121104e-01,5.188519448716526483e-01,2.379627844899779299e-01,2.086408809455029545e-01,-2.818937207193248917e-01,4.168247914724578784e-01,2.563772712368087361e-02,-4.395267729688963620e-01,2.315399010329348695e-01,-2.289880709562992778e-01,-1.241666817526373007e-01,2.204860762572478650e-01,-3.706538445935200071e-02,3.805803317970842259e-01,2.257653226850518668e-01,5.587490674477279401e-02,-2.664714521132627301e-01,2.759828646326705215e-01,-8.133681393656002623e-01
-2.733934009556661104e-01,-4.905843207685445795e-01,4.466436886852289123e-01,-1.044829868361883858e-02,3.748169262994056061e-01,1.760207460030077942e-01,-1.808790613738913700e-01,-1.259905594641455573e-01,-3.367290720011930638e-01,4.371841707508067332e-01,-4.893451272187695489e-01,-1.729320725766058872e-02,-2.542846614005148664e-01,-3.343776462311922049e-01,4.848238017748201512e-01,-1.178906561545318560e-01,1.814599842872536561e-01,-1.048182475583202683e-01,6.592719314096999635e-03,3.364928454282326009e-01
-3.300424157079064336e-01,-2.221209909270492056e-01,1.007622568566211574e-01,2.179926455673094621e-01,-2.972170870523614325e-02,5.284386851508402483e-01,3.263137550497661743e-01,3.024812979214263065e-01,2.302627521599618921e-01,-1.932837773724678521e-01,3.718247534214246808e-01,6.220435416503340698e-02,-2.767972895530180777e-01,2.103075830265347876e-02,-1.588304958747927820e-01,-3.819937619183273042e-02,-2.033150779970004374e-01,3.020260993262377514e-01,5.209376502402632281e-02,3.621709458568184714e-01
1.130394850018554692e-01,-2.112158152846385917e-01,4.099961358595831662e-01,-2.655946376456025382e-01,-5.664588503949465892e-01,-1.472566078890761299e-01,-5.033285491381274124e-01,1.678623566392337951e-01,-2.922822470984673404e-01,-5.340439772222778103e-01,-1.809794596802632438e-01,-1.218571682613505541e-02,4.055214208916289587e-01,1.337899223798542647e-01,8.394544750628049612e-02,-2.359074895280894590e-01,4.529600638965552983e-01,2.306398383451228606e-01,-3.729526150180568767e-01,-1.113307842930512798e-01
2.017981344882250894e-01,1.941814980157423320e-01,2.998496457766839374e-01,3.335148019551417153e-01,-1.339609982895164364e-01,-3.609337389165014343e-01,4.526252291559963448e-01,-1.946776060571743169e-02,-5.060911308840874145e-01,2.765311022901138505e-01,7.323496115167655862e-01,3.165983492458916970e-01,-2.775867032716107241e-01,-6.385160017716571268e-01,2.693679083591734025e-01,7.004921348579561391e-01,7.026060236981890306e-01,-3.847332403518434196e-01,-5.295982967483129356e-01,4.666275853602289692e-01
-6.125117069082584853e-02,1.701750518411297708e-01,-6.373603746294898009e-02,2.227584086432603805e-01,-4.280194019465128341e-01,-2.790046565957747804e-01,8.709861038956439802e-03,-1.121471305907954519e-01,3.229409923979136288e-01,-5.712939207544035641e-02,6.507805160400315092e-02,4.009646683504107800e-01,3.422170893332579511e-01,4.482822848343967492e-02,6.118166820171780373e-02,1.753183476299236820e-01,-4.940332672948141157e-01,-3.009814874467413026e-01,4.934361734613044725e-01,1.326263114091740837e-02
-1.633496689466854834e-01,7.098648052296856019e-03,-3.944946524775027052e-01,-3.856581870034473947e-01,5.834465904697493099e-02,9.218353885996671826e-02,-3.887491568253507168e-01,5.167615650269595795e-01,6.288370071961978391e-01,-3.194523034244888815e-01,4.124581875108301321e-01,5.217565517140502207e-01,-1.361507934906670825e-01,5.878542575743725962e-01,2.560579530201370080e-01,-3.491155847083719510e-01,-1.777895955304804876e-01,2.502351307570750416e-01,-1.857353570239077961e-02,-6.912327846322539049e-01
1.049648251650310421e-01,-7.842678667876190612e-02,1.096256856098315607e-01,-1.188009562283025150e-01,-3.403557296871936311e-01,-4.010799057638704257e-01,2.315518011092999040e-01,5.748524117762895957e-02,-2.111089181557911920e-01,4.027306812947745868e-02,-2.818119069396359255e-01,-4.743904862026351865e-01,-3.522446962466418419e-01,5.230664438423385798e-01,2.740441088809244530e-01,3.482442236532442559e-01,-2.194109483051576159e-01,-4.223632310712694543e-02,-5.102994128247979877e-02,-2.263838618450257356e-01
1.772325402790375926e-01,-4.702314808066581642e-01,1.577758444062057064e-01,-2.580935983497872344e-01,-5.562681657495791576e-01,1.543799191136100146e-01,-1.015036227621725490e-01,-4.866834333654865841e-01,3.457965321162479455e-01,4.179641449385111396e-01,2.524984741909688246e-01,-2.889873186121127424e-01,2.207060632966243163e-01,-1.417447080961266870e-01,-1.105847630659852199e-01,-4.327526211659036282e-01,2.837276306915160751e-01,2.313881115501275898e-01,1.524507321463028364e-01,1.122265644306103677e-01
-5.891024292248132621e-01,-2.117022814492314220e-02,-1.289957923402761386e-01,-1.660506388919167908e-01,9.397837481936782700e-02,3.903443219429603150e-02,6.137673541967495483e-01,-5.052627146157086246e-02,-2.156578725030514621e-01,-1.375606559638048454e-01,-2.242531734647800756e-01,5.362307984762246793e-01,-5.344730782065100216e-01,-4.182311882238768375e-01,2.778883243612602083e-01,-1.465112510290157884e-02,9.418141128630315440e-02,-5.606362807218159272e-01,2.298329988259879830e-01,6.004099793967810905e-01
2.557663910282690911e-01,-1.239380068838389359e-01,-6.288852749766447869e-02,2.712740224659161425e-01,-5.874959656167618588e-02,3.841651662445202953e-01,4.105878977675351815e-01,3.699421159736243081e-01,-2.683064461923113653e-01,-4.119033803925854498e-01,4.785958546419122328e-02,-3.880965330366099864e-02,4.158663026570584287e-01,2.078638039035853730e-02,-1.767266347336462207e-01,1.868995147465402074e-01,-2.241089406266958406e-01,2.527275791328764121e-01,-1.183026516627255637e-01,-3.191998838892164403e-01
2.245330773834254209e-02,-4.692165860059899218e-01,-4.532246448675351091e-01,4.160700785413753988e-01,2.560062841394025179e-01,5.663012683423525317e-02,-6.411461588535318779e-01,6.810710644869714947e-02,8.833902323847843863e-05,1.901076284561194762e-01,2.874894006908287197e-02,-2.981257293131521768e-01,-2.725906824897819658e-01,1.292990460391886809e-01,5.527264495633248398e-01,-2.613929096230157567e-01,9.021231042362445884e-02,2.082875345356328678e-01,1.973928126436922670e-01,3.750294390220426100e-01
5.711461362415357623e-01,3.562512005499129941e-01,-2.894197503158115956e-02,1.391215190752698450e-01,3.597227961914590821e-01,-4.794023045126414306e-01,-4.049548123964281099e-01,-2.606549245311318153e-01,4.140693035943208283e-02,-8.009711910475239560e-02,4.658302987496897724e-02,2.099782267699701610e-01,1.497167909311189760e-01,1.809088501178880687e-05,-3.602480224561170896e-01,-5.224896150687016183e-01,-1.464624276138293268e-01,-1.492799438562898706e-01,8.851543956113992750e-02,-3.295574670569424991e-01
3.571934973041651085e-01,3.519067306525172079e-01,2.911002047286199712e-01,-3.021874207775779655e-02,3.945142486881287325e-01,-5.095701771100515920e-01,1.634776844512819682e-01,-2.951710212322984916e-01,-3.421980934887633701e-03,-8.339573080734455357e-02,2.246157771947169257e-01,1.227346300052413186e-01,3.975924205880094764e-01,-3.672199767035662643e-01,3.032407176181916575e-01,-3.690572287923408745e-01,1.347452594365817873e-02,3.471768212201533088e-01,3.263255434986813697e-01,4.277775462816718610e-01
4.436338277157300669e-01,4.735450804183737872e-01,-3.196620347459808165e-01,-4.310625745182738999e-01,3.502371478876796784e-01,-6.611008802018867314e-01,-2.601757852307475805e-01,-7.459072311860394898e-03,2.615456416218646107e-01,-2.349560210705263844e-02,-3.593452433060847495e-01,-2.722229266530901137e-01,5.917166640403880296e-01,-2.006052817308329184e-01,4.714001683810126186e-02,-1.897251672478842133e-01,4.581870428006989959e-01,3.822790149670575732e-01,4.806257571036854359e-01,-7.601160034189845538e-01
-2.157111387150885407e-01,4.937131693648352249e-01,3.804979987267011199e-02,-9.442199005930249078e-02,-1.862179199549313449e-02,-4.022852437952356142e-01,3.520807495710253643e-01,-1.497805155585195669e-01,-9.620471391690510465e-02,9.784215040331405155e-02,4.444016652711595960e-01,-3.652846569092905726e-01,-4.049070691392134824e-01,-2.013492641640575731e-01,2.987343803193346914e-01,-1.637686005068442752e-01,1.016917783824110855e-01,-1.951781440201875439e-01,3.002016879109140057e-01,-1.108164207147555314e-01
6.553657479584090728e-02,1.329053626400281130e-01,3.574512071982997585e-01,2.910060637518767646e-01,-8.315910181514904465e-02,-2.169509325129857502e-01,5.923153417599240633e-01,-2.230487882100525288e-01,2.071099030214046122e-01,2.484105572008013518e-01,-1.009754811214895048e-01,-4.754044239725968568e-01,2.967398683296459949e-01,-4.288866441773964838e-02,-4.294639837176083552e-01,-1.293872268897963973e-01,-1.718158452844584794e-01,1.234470529767099506e-01,-3.794170086103808015e-01,-1.007597318038588180e-01
3.258304481342269576e-01,2.640726420234121297e-01,1.237545577833351895e-01,-8.482805373151346140e-02,-3.654559901416646883e-01,-1.492675249401912221e-02,-1.261952996403633009e-01,-2.586974845926164890e-01,2.843756668064051363e-01,3.263127546533247103e-01,2.943644593773992457e-01,5.167440578016589958e-01,5.854482953149153790e-01,4.417641044561819164e-01,-4.934806772656839535e-01,2.643708285685392179e-01,4.620927647807178927e-03,9.258335425322829215e-02,-2.338103155451263029e-02,1.435723453630035305e-02
2.948953739336200863e-01,4.895277151294317175e-01,5.517161413893184596e-02,-2.990526388310206229e-01,4.272504294794640112e-01,5.186910303019575119e-01,-3.276817526079289777e-01,1.884855000114766532e-01,2.466268964147014589e-02,-1.068443859752809671e-01,-3.248706151761615070e-03,-1.178981439696013961e-01,-3.828648661413160958e-01,-5.832700827031851443e-01,-2.357879351840553306e-01,2.767396118372477121e-01,-4.749043599509321090e-01,-3.277011187447414486e-01,4.155069428737690473e-01,-2.558388951189179417e-01
4.620450072182685219e-01,4.209649574599740873e-01,-1.918280046461578459e-01,4.678510603691493075e-01,7.816357108291606404e-02,1.212412836735189126e-01,2.725039755775702233e-01,4.268498086999837349e-01,1.925060425096465763e-04,-2.971834715647452829e-01,-3.147514952468893346e-01,6.712357871945842658e-02,3.451204826279495319e-01,7.047055469693316865e-02,-2.327150446024537633e-01,-3.365889958727089071e-01,1.643867626760514844e-01,4.500215292454013971e-01,-1.526882191091643026e-01,-2.985840587452212591e-01
-6.866434784313060757e-02,2.468355698001683529e-01,-2.448167225631186217e-01,-4.785885864642807630e-01,-6.308162285481822007e-01,1.268162256780347441e-01,3.502319170817038141e-01,-3.286920977980637426e-01,2.907704726510578763e-01,6.552400637208105616e-01,1.753576630866393593e-01,2.450172024107839241e-01,-4.749801312621801386e-01,-8.682674608694736229e-02,3.119735175372591596e-01,-5.352117434494949588e-01,-4.663429471534190074e-01,4.351584992537048113e-01,4.057852544436059417e-02,3.406383952947993343e-01
-3.092164279522475745e-01,-2.865435768853963894e-01,-4.766707871122157769e-01,1.679846771583079212e-01,8.541052468200914516e-02,6.782279284889479454e-02,-4.698102563280127097e-01,-2.373166639874724759e-01,4.699932150765877004e-01,-5.755585802106832211e-02,-3.158232500405218635e-01,1.272972895979983810e-01,-2.567768248175042456e-01,1.052235813736802569e-02,5.929692633336020036e-02,2.685887238496743046e-01,2.983302482142531353e-01,2.698995163717332613e-01,-1.296693121496415024e-01,2.780147414413982054e-01
-2.999361616893880811e-01,4.549669339039971727e-01,8.953800602261183239e-02,4.379607648023224886e-01,3.989637159342276362e-01,-1.077044007191614305e-01,1.936958568098813838e-01,1.656003864660661809e-02,-6.998582609525980103e-02,-3.710844996966063559e-03,8.921867199243886659e-02,-5.008935750938419140e-01,-4.235857126907665582e-01,5.100659403456442309e-01,-3.923462443197586746e-02,-3.584102266987532204e-01,3.878923297690303196e-01,-3.634378419370767888e-01,-3.505737096102120032e-01,-3.672032718718770128e-01
-1.725276146489019002e-01,-3.111122166798888089e-01,-9.609032012258032773e-02,2.978780509996483694e-01,3.257950942126080496e-01,-5.278461838187757937e-01,-4.036430533929673270e-02,2.295889720495322417e-01,2.234353300173591850e-01,-4.745265355065645951e-01,3.079437302518409775e-02,3.786829560844550135e-01,-2.337510781064229826e-01,-5.955344433384618386e-02,3.234304685267792578e-01,3.807200827417321354e-01,-3.036234546209263807e-01,-1.042451901648760865e-01,1.241013939851236120e-01,-3.066498001925413094e-02
5.031783693213092157e-01,-1.232307990198790310e-01,-3.560686503670444925e-01,5.208598355046202277e-01,7.315287438128502406e-02,-4.162766637341883680e-01,-2.879938445153189530e-01,-1.951418517281214848e-01,-2.356164220058264841e-02,-3.130039283086208379e-01,9.495890873267492927e-02,2.941553552333026622e-01,3.011474913206989568e-01,4.584054168098627979e-01,1.737574630501062534e-01,-1.522475078344473765e-01,2.944615329222515232e-01,2.330575596169132124e-01,-4.315179612788759278e-01,2.322739733782286098e-01
4.822469888816133254e-01,3.610705837875141655e-01,2.370443121631812256e-01,3.119562849205830823e-01,-1.278624216642105238e-01,-3.185342701698219425e-01,-1.656022471885149061e-01,3.540351579473124399e-01,3.714203594202592495e-01,4.028247681958457282e-01,-5.823877229516843945e-01,-1.417958322778380478e-02,4.902748695698013193e-01,-2.086095265247864539e-01,-2.732091399016431388e-01,2.292196037500194017e-01,-3.832798860883214753e-01,1.306841757356587419e-01,1.709184034528331633e-02,-5.332770179634399588e-01
4.866441668569576051e-01,1.803386241312416594e-01,5.188745657622377550e-02,3.749265703566762031e-01,-5.113600570783515264e-01,-6.444275918399503533e-01,1.613679481315989095e-01,2.391022656889560671e-01,1.730847621676077641e-01,-8.128509423865877548e-02,1.530966955107005145e-01,-9.855617184680642850e-02,5.911104923284946633e-01,1.729816394643731436e-01,5.320523066145851354e-01,7.925054720268293051e-02,5.766039250564024554e-01,3.249135532184985742e-01,-4.444994454209003076e-01,-3.451010625830618905e-01
3.577681456850866915e-01,3.399871593118198310e-01,3.734705627937038447e-02,-5.372895243531726761e-01,-9.409847844161753350e-02,-3.657726740387779452e-01,-4.059037635229751362e-01,-2.608821028373237150e-01,5.240441595578196887e-01,1.443126643859262703e-01,-2.932600850822902894e-01,3.706163242320465456e-01,2.973684677074927007e-01,3.677158817690485137e-01,-2.468442370489826732e-01,5.004171280725838028e-02,3.348891705557461296e-01,3.683641491637372201e-01,2.089508075826070899e-01,-1.174040659703622369e-01
-1.056443744955091885e-01,-3.791130160717264275e-01,2.274852499387441385e-01,-1.128589843927635672e-01,-3.189146913756352730e-01,-3.104612233200174098e-01,-1.692181020871386388e-01,-2.691722780223957945e-01,-2.868776914323260541e-01,7.113018066465548461e-01,6.871382585725660519e-01,-4.411576933977849890e-01,-6.607177426471048942e-02,-1.935807950663080979e-01,-3.712708356660057718e-01,-4.009191135822967045e-01,-1.604888369692264449e-01,3.244047680708784798e-01,3.911819337507785321e-01,6.330196716819421754e-01
4.933175316655410980e-02,8.340028207214426892e-02,3.158629129210654418e-01,2.179757814574443120e-01,2.192492990129116803e-01,9.919821566033998339e-02,2.199985210534855240e-01,7.157169480259087391e-02,5.117966975260441337e-02,4.913357945954868744e-01,2.275602174061136518e-01,-2.317851410057291672e-01,-4.588747503162057262e-01,2.614584460557596302e-01,-1.551230996910183541e-02,4.236912194124773934e-01,2.994444023270203536e-01,-1.146671520483610318e-01,2.077146889091081861e-01,1.595629296544295583e-01
-2.401849174349925953e-01,4.009770349478526952e-01,-1.108678484509590667e-01,4.494090498876075479e-01,7.089829071906564861e-01,3.860025502604065295e-01,-1.633733686269211449e-01,2.902759919869595251e-01,-2.638094452530756473e-01,3.035386235360101326e-01,1.406273521187172137e-01,3.284233945388350673e-01,2.462734626569169222e-02,1.485594329924282975e-01,-1.581886479604988072e-01,-1.668366344259469836e-01,1.237925104011536846e-02,-8.645080124566424662e-02,1.602991746521516270e-01,-2.362622398245542710e-01
-2.878395605140728931e-03,1.904488152092740916e-01,-1.756548293971829933e-01,-1.974635471794397579e-01,-2.163053253014192157e-01,-2.430321462256329057e-01,-2.771285664120337056e-01,-5.332717176837653561e-01,-1.018529153115168284e-01,2.383646357067510935e-01,-7.859101853530080228e-02,-1.743881275875575065e-01,2.897385297380920544e-01,1.504709465454596162e-01,-3.195811793960208480e-02,-4.038227902919162837e-02,-4.821307896946356863e-01,-1.883850158448598447e-02,4.114820770940458283e-01,-8.962703346475142663e-02
-1.058243939198317135e-01,-2.229465336771643269e-01,-1.487568983357484276e-01,-1.792746406738795692e-02,-2.998571898311558903e-01,-3.381378412019012819e-02,5.366510639260502202e-01,1.690737990485631781e-01,-4.372465565929148368e-01,1.549108135080638771e-01,-4.904051192558565031e-01,-4.529046652920984406e-01,-5.185645375172888150e-01,-1.762034671902075744e-01,3.115326861577497053e-01,1.086520061645972939e-03,-4.816876464509712852e-01,-3.762231509491867354e-01,4.591339059251308696e-01,2.208157039431840607e-01
-1.377977241574239453e-01,-5.052643822312964383e-01,6.275575033614352316e-01,-4.853155916360122335e-01,1.531805100115423129e-03,3.243237518949554365e-01,6.666016748218386301e-01,-2.030721184937034907e-01,3.255393084270085113e-01,1.631467668991367914e-01,-2.849882271429916014e-01,-2.454109313016028526e-01,-3.332252734653193271e-01,-4.644965499515635310e-01,5.866513667417522226e-01,5.442617642086675089e-02,1.178355076311745631e-01,-8.364264485946716621e-02,-3.884921230381874202e-01,3.156376585562266079e-01
-1.722590941557693434e-01,2.666311270891147389e-01,2.885099642297509481e-01,3.088198273139229899e-01,5.650424886092562105e-01,-3.186049192935067054e-01,4.548273868092816419e-01,-4.476246991671999353e-01,-6.043581462958719230e-01,-4.895875719232054002e-01,-2.801727507017461871e-01,3.681402688948460233e-01,1.028817652329058058e-01,-4.313084694047013279e-02,-1.530930976422660017e-01,4.404616405174189286e-01,6.708586410182496018e-02,4.223931325492027988e-01,2.065054704737308011e-01,3.472160833177868056e-01
2.122627579776232842e-01,-2.212365194390188416e-01,2.525368396601664345e-01,-4.484024798746647639e-02,2.524917095238475850e-01,-3.791618874476677947e-02,9.361182627055263106e-02,-8.712375928838693440e-02,1.249077122797156020e-01,-4.449133436886064108e-01,2.817950312297806681e-01,5.892297233677622204e-02,-2.986303736401567724e-02,1.487565595739638868e-01,-5.017435560197001099e-01,-7.763966880666607964e-03,3.674926924321977872e-01,-1.085976847764704989e-01,3.330545912348800153e-01,-4.369878313738015940e-01
4.761825808619660760e-01,-4.281368074322475237e-01,1.775073587750256587e-01,6.304992733252676174e-02,-4.543556303555865150e-01,3.030001130580612378e-01,2.611989391678874728e-02,-2.999907822909861355e-01,5.388837286996474019e-01,-4.196436025461139918e-01,-3.852711589482799570e-01,5.002569394754609045e-01,-5.532608821076476918e-02,-5.998527763911872673e-02,4.433290834857815388e-01,-4.817987787018487289e-01,1.645540641289870709e-01,-3.920811152814243639e-01,2.303230439854802858e-01,9.509367076671972063e-02
-5.404152145549737801e-02,3.059697757522921169e-01,-5.228288591863026191e-01,4.727826494987630301e-01,3.331668315875465081e-01,-1.680221797016310525e-01,2.044322450378987244e-01,8.397153899704948299e-02,4.524945619281492970e-01,4.502984868767906379e-01,4.167188922343652013e-01,-2.137770955310954180e-01,-2.273160412977120182e-01,2.800266168558147584e-01,-2.721191177844500819e-02,-1.237798896908439417e-01,1.182174734134608107e-01,-7.735244953812750457e-02,-1.634093447657029852e-02,4.373543263416941884e-01
-3.293981061915280534e-02,-2.410105863252626768e-01,3.869251844083408387e-01,7.926121601607939715e-02,-1.609520587160456762e-01,-2.577568438651898775e-01,4.787905872815539365e-01,3.956223798707352857e-01,-3.364809189821214019e-01,2.935609778652693014e-01,3.023506224854194402e-01,4.612985253380077477e-01,2.108388200216975220e-02,5.085476721852758702e-02,-8.739847963131411324e-02,2.720450615267589467e-01,4.429244906220746181e-01,-1.259006547329562520e-01,-3.659495292801192012e-01,4.138480319505893901e-02
-1.930560776335518008e-02,-3.434846650486962916e-01,-3.258364832638320219e-01,-4.258466654061652396e-02,3.199131880238788306e-02,-2.279609214276803394e-02,5.331632775084694797e-01,2.700263368406095044e-01,5.427395519880211516e-01,7.585942028227600220e-01,-2.389722863246583062e-01,-2.450190839855930780e-01,-5.561569545583188168e-01,-3.786463355632735395e-02,-1.818660706764642088e-01,4.607356164240639096e-01,-5.379639177942046047e-01,-2.418307135774941941e-01,-3.082455421245455240e-01,2.579780497781091197e-01
-1.838902115347400557e-01,7.813182188245217921e-04,-5.348479329693377471e-01,2.030528313090753864e-02,5.402064573568854389e-01,3.898401517796240036e-03,-4.909965927321056911e-02,6.377689524559475298e-02,3.397117030604741156e-02,-4.216750025838285065e-01,-2.148520154734822885e-01,2.180391627119946107e-01,-2.945744264124165457e-01,-3.309561158239879841e-01,-1.655374271987813950e-02,-3.040531887406804357e-01,1.198103556582013479e-01,4.916221047991099491e-01,4.741125805142717975e-01,3.613105091493885035e-01
-2.741358612653151949e-01,-1.058356396711783304e-01,-2.801913890669546214e-01,1.817543377399136739e-01,-2.324829815081898288e-01,2.293589696149753165e-01,-2.760250657353163217e-01,-2.173808154499252410e-01,2.587711767747915004e-01,5.590371563353690315e-02,-3.353660645460030953e-01,-5.212246561525649691e-01,5.420046568754599559e-01,-1.500173341953603134e-01,-5.435459270437639212e-01,2.242943004066381696e-01,-3.943685497568842346e-01,-2.619119957796344211e-01,-2.341734994356930721e-01,-4.928152644199103039e-01
-1.118781210161595152e-01,3.564045432182589256e-03,-9.749469820393154296e-02,-1.341090322738965057e-01,9.752518856924427548e-02,5.737069243498853499e-01,3.948036944257219405e-01,1.075745458001250293e-01,4.925532783948423643e-01,4.004503619485723087e-01,2.907330078328071998e-01,-3.491973462713934329e-04,-3.556608478384148397e-01,6.366621220699474060e-02,2.133927244132217960e-01,-2.502367852878519816e-01,-2.223363972172182346e-01,2.344350414570901264e-01,-1.414491560393763558e-01,2.542020286231586046e-01
-5.455041497352819402e-01,1.259333334180175136e-03,8.396334791086784710e-03,-3.956666830962655701e-01,2.082134685908006433e-01,4.735164455066596667e-01,-3.213027641223827890e-01,1.358324443445185215e-01,1.725648874181514580e-01,3.760197796083048494e-01,2.875334179692067837e-01,-2.998671556541397942e-01,-7.234058680670545360e-01,2.611393276239909467e-02,6.012196822661350915e-01,-1.287006295900232633e-01,-6.057346719160932036e-01,-1.470266426347680289e-01,-4.261651263268344536e-01,4.405148420764580797e-01
-1.117863634310575088e-02,1.375120651317125742e-01,-2.852003080163581505e-01,-1.263762241724213919e-01,-2.330889224592221920e-01,-3.207750028023683142e-01,5.321494388928267316e-01,-2.829117146666217386e-01,-9.753275218936093005e-02,7.608242698533604353e-02,-1.000747859784636151e-01,3.937074705249546391e-01,-5.397230926666182205e-01,-5.169248860291040248e-01,1.905028115472068850e-01,2.942539917940782956e-01,-3.366620655695817810e-01,-8.553480957465985079e-02,2.467353507112661579e-03,3.410251409843380599e-01
5.017408756419897697e-01,3.390629911279735009e-01,-2.238290446692013935e-01,-4.026143738291473873e-01,-3.626211824424199759e-01,7.920088645889360179e-02,-5.642664310461095040e-02,-9.262849186546995295e-02,2.583720255501099627e-01,3.583980678445938123e-02,5.499141588468301478e-01,-3.777505514928255481e-01,-2.875160606994991430e-01,4.703055915357815843e-03,2.281578169319232671e-02,-3.331258065102802313e-01,6.213085162322504740e-01,2.032453989535027705e-01,-5.208105463133256841e-01,5.183742465615430728e-01
-1.500828400299463738e-01,1.591718511511536205e-01,-3.034244612655169204e-01,-4.756576856571474443e-01,-7.430749200076718075e-02,1.994968565727577026e-01,-6.034024520184853857e-02,-4.499976476767307554e-02,7.205290324425708826e-02,9.782706578682109910e-02,4.148473127500070246e-01,8.033080508680406906e-02,-3.881886514316123526e-01,-1.057979741369473037e-01,4.944520369855798791e-01,-4.788493319028844786e-01,3.360926634086035536e-01,4.905664268884498691e-01,4.055832287207319364e-01,-4.646329102133925915e-01
-4.540163081715211518e-02,3.847958565923578766e-01,-6.878659651803150157e-03,3.004292789977417999e-01,-3.168101194027067580e-01,-2.962432396155169068e-01,4.057340289653113552e-02,5.004891874641024252e-01,-7.567397370567087445e-02,5.436002809582830553e-01,-1.743071944849619026e-01,4.505419961363548720e-01,-4.757516891812823556e-01,-1.685178443650526062e-02,3.551247281391760047e-01,-3.670693940535260102e-01,-1.317781392252618256e-01,4.097187039364069139e-01,-4.671515763446160152e-01,-2.575415743281370684e-01
-1.543245406760630489e-01,2.664712865338944026e-01,-3.612785800934945613e-01,3.082480872563986285e-01,3.228625945491631621e-01,3.187924939003375369e-01,-1.974642353693172314e-01,-4.238262340358622260e-01,-4.682515899688003969e-01,2.115371797026159573e-01,-2.813301467131300582e-01,4.728975916029370397e-01,-4.673516141507748634e-01,4.951073150703059755e-01,-6.228320105766217002e-02,3.960258480550367666e-01,4.992130759914645971e-02,1.259913721496013495e-01,-7.093994041404612545e-03,-2.539663634006961157e-01
3.274995250870016972e-01,-4.061604571451377099e-01,-4.463290706388187146e-01,3.044755952460485027e-01,-2.288371375469606395e-01,1.775052378325326641e-01,-6.744177555575165961e-01,3.688443418004050400e-01,-7.232151528972863286e-02,8.933940074822958877e-02,-7.990995500884735814e-02,1.358182481353397142e-01,5.862447822561226429e-01,3.998577903899122599e-01,-4.975713267210319923e-01,8.509558011581593029e-02,1.027707658280441194e-01,-1.588650140263349053e-01,2.579216964982797289e-01,-1.191633839101214343e-01
-1.462409750511257656e-01,4.059696779173651016e-01,6.470312505843728301e-02,-6.779982927239822099e-02,4.486350780546942141e-01,3.595315078088660576e-01,4.087778995578367769e-01,-3.629106770543220201e-02,-5.682432674929893679e-01,-5.235194256940256530e-01,1.099160086475507205e-02,1.235671735970962637e-01,4.179859054883026115e-01,-2.867350694023914071e-01,6.037153098752814223e-02,-1.946541440457614028e-02,5.399627181581524438e-01,2.289544031763906806e-01,-4.349441974751094148e-02,2.541232849270598226e-01
-1.853856516102839747e-01,-2.408782987862802261e-01,3.184566680786689585e-01,3.904047146458852202e-01,1.152542928860537524e-01,-3.769883628801526942e-01,3.461487860791081506e-01,-1.083823397774490854e-01,-3.360479673683047230e-01,-2.625381131408240920e-01,1.460227126835275148e-02,2.144147023873991809e-01,-3.937842996704300491e-01,1.311696987554997473e-01,1.533764881742472053e-01,-1.141558158373305598e-01,-6.595838260506937667e-01,1.439836820777644355e-01,2.402103918082052481e-01,-3.968541988858778069e-01
2.831261081443082750e-01,-1.137866773146036653e-01,-1.815704849113155064e-02,1.949661148469797323e-01,1.468047983612859875e-01,-6.373525473650137885e-02,-4.807336482607846989e-02,3.011999059500107268e-01,5.014138466707389608e-01,2.984603043266969083e-02,-1.796292400101076048e-01,3.683908523877460484e-01,-4.287733231904750086e-01,2.140781695650373628e-01,1.341462119527471741e-01,9.174011482178839882e-02,-3.145896072469379634e-01,1.189749670220682787e-01,-5.761921594464085583e-01,5.833699996349804850e-01
-9.405720916439863633e-02,-2.028153392811768430e-01,4.274338468521413081e-02,1.622749715967673478e-01,6.347973192152495982e-03,-1.952759916802129792e-01,3.811907782121736199e-01,-8.991331633360644116e-02,3.924437547225081424e-01,-2.663201992929669082e-01,3.580799678640596562e-01,-3.905214316445584366e-01,-4.821355331899867536e-01,3.717981963517553168e-01,3.200082827595807089e-01,3.415797783042302110e-02,2.635228878695949351e-01,2.855909439536465921e-01,-3.751803104311047798e-01,6.259912951471004183e-02
-9.425826321171089719e-03,-4.225383272955723912e-01,-1.781458345276983324e-01,-2.442722615508896855e-01,2.944071546188690297e-02,-1.901788473445251149e-01,2.897454653947115766e-01,-1.841986233075006418e-01,3.674021238954136015e-01,-1.798067984164679889e-01,-1.377450047971187364e-01,-2.574828041147684821e-01,4.289353662932208766e-01,-1.694961637462116255e-01,-1.537925849265389944e-01,1.403809178243102251e-01,-2.650944013057766613e-01,-6.331381918548936727e-02,-3.287622990169954407e-01,-2.339327358354595099e-01
9.707339378924179085e-02,-3.760517966444507088e-01,-3.984740492448253790e-01,7.269107109743346007e-02,-5.423159445673952049e-03,-6.862940556734360752e-04,3.053919546592160361e-01,2.577612006100168593e-02,2.521647610219243663e-01,-2.051147069284023072e-01,7.066002383135390474e-02,-4.858285466840221445e-01,1.343908603578092276e-01,-7.296485966182920946e-02,-6.283737222391569399e-02,5.527173112433472063e-02,1.473411912055934136e-01,-3.202132508452481541e-01,-9.947976464655253204e-02,4.033168874833758522e-01
-2.270921660863670088e-01,3.825565327853746589e-01,-1.985402190700742420e-01,1.059813593125975145e-01,3.135643027676018324e-01,-3.347784350392523645e-01,-3.331771965959774429e-01,6.386666912176418576e-01,2.394299550416344458e-01,-8.911963341595480204e-02,1.931231253445339080e-01,5.178205389522092528e-01,-3.487720100595054218e-01,-5.697669495129231015e-02,-4.201783417520629227e-01,-2.687883115752992547e-01,-2.023022043547587079e-01,-1.811771924407314660e-01,-3.562443757950306544e-01,-2.168658203754038061e-01
6.293656540422820633e-02,2.619725218404483913e-01,-3.643797606251428789e-01,1.734469692923554518e-01,2.120794521086142304e-01,1.053983962570155253e-01,-5.093400765818342224e-01,2.495290608736741578e-01,-2.996563960066282450e-01,-2.200665488796432478e-01,-8.113491471329996318e-02,-4.045370338337714866e-01,2.497506298242389844e-01,1.807686861142480672e-01,-2.390249011503465248e-01,-2.238651756405050097e-01,1.068929713011957869e-02,-4.673712169561886065e-01,1.574276013799644214e-01,-4.699307673957647258e-01
-4.438030239157773615e-01,4.718565417030586295e-01,-3.068821406275936692e-01,2.403584822162519452e-01,6.813079556470483245e-02,2.042985598138381820e-01,-4.907300968673235231e-02,1.187517784261667708e-01,-3.237162764860759823e-02,2.690330707403475463e-01,2.781272745130785040e-01,2.090561786943687106e-01,-2.292878169062756433e-01,3.271515136299354420e-01,-4.459348312360546934e-02,-6.974706027436480826e-02,-1.733667282141654331e-01,-1.228349721110257170e-01,2.403489785820732694e-01,-3.686381664671742331e-02
-4.183500117223769021e-01,-2.545841075297997080e-01,-3.796888240949065074e-01,4.926589906262673346e-01,-6.486861749296553015e-01,1.090167555899957813e-01,3.246011979378144452e-01,-7.015749194904981056e-01,6.067753328563187942e-01,-5.746937734357111527e-01,-1.627981976751071702e-01,2.802959442157597070e-01,-1.794066030809654544e-01,3.879642570134463342e-01,1.830921428625999769e-01,3.838406619290556376e-01,2.157029867679643997e-01,4.825728829604476466e-01,-5.303945638803062579e-01,-1.416456584130259544e-01
-4.286999275521746755e-01,-2.878249740535550050e-01,1.943549774583195056e-01,-3.718279093216462217e-01,-7.193364709488432596e-02,4.856572835505850172e-01,2.670513832859676695e-01,-2.520728174290769452e-01,-1.868141607111692692e-01,-2.892273468777375456e-01,-9.126990983663829660e-02,3.131071159477397114e-01,-3.464834111868302369e-01,4.734392046490391581e-01,3.273116059369958197e-01,9.578239562265471185e-02,4.766648980861677536e-03,-3.484178689549194408e-01,-1.592545960150730244e-01,-4.775341925905127183e-01
3.897437526172401467e-01,-4.370596566259909999e-01,2.240043315275367861e-02,-4.129654980584276380e-01,-3.320674778470120159e-01,-4.768115084230697964e-01,-5.737448777366539465e-01,2.504302111170817469e-01,-2.006406639129477976e-01,1.439911636947727169e-01,1.385667592443342623e-02,2.753049262605149483e-01,3.611710530986245171e-01,2.371869450833028747e-01,3.976830735635054626e-01,1.860658196868228420e-01,-2.414321162471356336e-02,5.731692688779606998e-02,-2.073676002821100706e-01,2.176379245406050711e-01
-3.630119185616496602e-01,6.006745994161558633e-01,-3.524963909578303078e-01,9.492490701715336487e-02,6.756742929686515575e-01,-2.202882313812637161e-01,-2.966005639468518029e-01,2.492504083562171735e-01,2.847295341226344090e-01,2.285289995223036552e-01,2.007101511277416261e-01,3.492028344504578552e-01,-2.053342083699729037e-01,2.042909642606282883e-01,-1.880495227479335174e-01,1.647445939597414200e-01,2.404506083047434906e-01,-4.378162790007409377e-01,3.202563828148401182e-02,-6.303780624889827600e-01
3.704632499658275235e-01,-3.268441397842403728e-01,-4.808378174059539933e-01,9.993745134827768106e-02,-3.663373102489748678e-01,3.066721805978008808e-01,2.641289436450264261e-01,9.343197784290112329e-02,7.379093738314037587e-01,5.165386824417688566e-02,-3.105187542600282846e-01,5.637743720365608890e-01,5.518317620670503132e-01,-2.950583457539395216e-01,-3.184474579371362468e-01,-6.084343512603144211e-01,-1.449281764722908927e-01,1.761051715107621873e-01,-2.418224607026455142e-01,-4.692130038391466029e-01
-3.261634474511175830e-01,4.022305810124643943e-01,2.171817806800689088e-01,3.432042037485336095e-02,4.252095020301476791e-01,-2.072341346083192148e-01,2.401923411877095460e-01,4.604806572121757369e-01,-4.561400748312373077e-01,-5.013069956028505247e-01,-2.598541437823426725e-01,-4.798127539158220101e-01,3.839034879657942101e-01,-2.888258068721619720e-01,5.307444215823252653e-01,4.559130157632902691e-02,3.890773856976762479e-01,2.434586765698356636e-01,3.448832686453476293e-01,1.045603079582340250e-01
1.727181728785406600e-01,1.534553137286954194e-01,3.553475589211539387e-01,-3.540486392223868295e-01,5.109402267434731693e-01,2.638298789216777726e-03,6.534507429715830096e-01,6.140286857369272461e-02,-4.886579450599731200e-01,-2.923915232875393677e-01,2.660795758705456482e-01,2.607299221935982514e-01,-2.390566589160528221e-01,-5.611824979187026718e-01,-9.173142012189264283e-02,-4.991574726507047588e-01,4.986395899286470007e-02,1.847517291518636362e-01,4.286861743586661833e-01,5.456395559654399902e-02
4.288898733664204266e-01,-2.503742188162225712e-01,5.019092663934843213e-01,3.944409233149703264e-01,-6.232404236817132848e-01,3.987520293956161033e-01,4.519202865856823959e-01,-1.125495463912293687e-01,2.931306700823604547e-02,-2.634567201884856491e-01,-1.200332278287681159e-01,-2.463852743278961421e-01,4.640307843089011564e-03,-3.184915362465308708e-01,1.339560021182122362e-01,5.250504405985259027e-01,4.513163256459513661e-01,-1.036740924685202042e-01,-1.928954160544395502e-01,-8.936708440310159318e-02
2.545699609682812170e-01,-3.035059414954118795e-01,-2.835120591237293430e-01,1.738660893008939223e-01,-5.880106791993607862e-01,-3.740973250410162265e-01,-4.557403894705437941e-01,-2.525719162308473834e-02,2.247590752362292610e-01,-4.105157121690878319e-01,-3.341813075126587318e-01,-3.465646757316876436e-01,5.189073647814634871e-02,3.900405841516793037e-01,3.736445234457140274e-01,3.264582636304824009e-02,-1.098157229130476004e-01,-1.160225815617652173e-01,-1.985836137755133679e-01,3.529121224809650403e-01
5.408297666085771782e-01,-1.360136909977170128e-01,-2.740222729949894354e-01,-2.308365200481439228e-01,2.720423761813067220e-01,5.019787230208374584e-01,-4.386410798212100892e-01,1.999902867637564641e-01,4.091083455248753498e-01,-2.937971495247176379e-01,4.028959884020076321e-01,-3.902137053202104910e-01,-2.716109957966408306e-01,-5.406127332352478332e-01,-4.661050052854422421e-01,1.009429353957970732e-01,2.817203278653119813e-01,8.586669008484813792e-02,-1.352219174225829414e-02,-1.056237435064215635e-01
1.377042073670245725e-01,8.609445465671712594e-02,-4.686513753595063503e-01,-6.323253284895573312e-02,-6.335905278814678299e-02,4.903554529261748840e-01,-9.905021200962516037e-02,-1.505532289383194333e-01,2.650595859150556843e-01,7.629450574304819099e-02,-1.162062171980138975e-01,-7.588194112769424370e-03,-2.588144297421374196e-01,1.705968249057112918e-01,-1.477321436316744452e-01,3.676843066737274790e-01,-5.184858000685997892e-01,-2.050097858592721534e-01,1.331040693742253644e-01,2.506254713944815471e-01
-3.396353136707863651e-01,-3.395309955342793451e-01,-4.132379047466944733e-01,-3.698305271588694931e-01,5.690087742890235223e-01,-2.163644180030502018e-01,4.527861138626340098e-01,3.934932282503836309e-01,-3.285387477769476927e-01,-1.223546722592010749e-01,-3.980361550763598655e-01,1.304102845693460855e-01,1.491422527822245658e-01,-1.424532516138791727e-01,-9.345553415569222977e-02,3.558450743131911786e-01,-4.018752199327673136e-01,-3.542889666302421747e-01,-2.260923389271485839e-01,1.758453160781403568e-01
-1.827367237625676377e-01,-5.810875543975444479e-01,8.824549708780657364e-02,1.827909035905018742e-01,-2.504546681439064754e-02,4.819069833125612656e-01,-5.522050350672968316e-02,6.596233105494763056e-03,-1.041602470232446676e-01,2.854289194976686317e-01,3.151459004860830415e-01,-3.315888840347691602e-01,-7.635307706986932397e-02,-2.300832539964718926e-01,-3.737018169091086417e-01,-3.563734232778260624e-01,2.862506076752999173e-01,4.656782811432243485e-01,-4.105051324576926008e-01,4.629429844223390544e-01
-2.726295478444976106e-01,-4.272329265840925372e-02,2.466032807090087486e-01,-1.907594206188766850e-01,4.811553162326515642e-01,-3.688813691183366883e-01,-5.637935174030335450e-02,-1.474531042654235180e-01,7.537907948645779233e-02,1.273532419114007386e-01,2.924079611118149957e-01,-2.718570736362928564e-01,-6.257817642434145844e-01,2.967365531710399740e-01,2.453736334901724103e-01,3.047643529858852160e-02,-5.945487408519611189e-02,-1.711541820419423543e-01,-3.525395918604566914e-01,1.639521448922918456e-01
2.485733170406329295e-01,-6.280657272630021382e-01,-4.722216413411330915e-01,4.649249779443453967e-02,1.623389692243458471e-01,-7.772310701405879541e-02,2.395544253358524445e-01,1.338057126524215268e-01,3.391604991449556628e-01,2.933541348363160051e-01,-1.384706633001331622e-01,1.107164806724522804e-01,-4.425156336560096687e-02,2.026899439549698922e-01,6.235185798298312210e-02,9.458938256045845705e-02,3.289827903510343377e-01,-2.082793584741470805e-01,-5.691579079489628157e-01,-6.173198788488757499e-02
3.373117264349320132e-01,-5.974202099712374592e-01,-4.334146728978985896e-01,3.194523408089821603e-01,-7.609167608112228122e-03,2.835491419139204994e-01,-4.022967782656015068e-01,-6.758851425952336900e-01,1.413356354576985607e-01,9.358509079041332779e-02,3.279727196681551660e-01,-5.404068569869970862e-01,2.623918468886737299e-01,-3.937107833530369971e-01,-2.667960310094302789e-01,5.613084290913182839e-01,1.672606472936730981e-01,1.627702217344627056e-01,-1.796848776019565053e-01,-2.594027220045703741e-01
7.784478533790570309e-02,-3.771016435978645776e-01,-2.269841005708064449e-02,4.618422791826199414e-01,-3.329971418820633078e-01,1.256296994545390809e-02,1.662361607016324960e-01,-3.958610070572119999e-01,-1.150218783250874510e-01,-1.247378964004018098e-01,-8.215288573266593675e-02,3.000760391754468959e-01,-2.628897041805827728e-01,3.176045718291971298e-02,-7.988444511021218497e-02,-3.550667977999620306e-01,6.041573650256673034e-01,4.983831412913553582e-01,1.825364098033777915e-01,-3.421682588256842461e-01
-4.372525545815126868e-01,-4.329524892204960618e-01,-1.148187052513903461e-01,-3.702446681438822385e-01,2.027536987060497009e-01,-7.726185821703690504e-02,4.235818830691839842e-01,8.613926079653590195e-02,-4.195921365349442600e-01,-1.471695067955856862e-01,-3.156917558037510840e-01,1.360442203409320816e-01,-2.551707378107247459e-01,5.116863792461632393e-02,-4.376801842578074142e-01,2.344090113102532402e-01,7.387399650826192987e-02,3.632209888298306710e-01,-1.844035934315705338e-01,-3.152235641642222030e-01
-2.043701374429873208e-01,-3.163771026985813251e-01,2.968700276165704421e-01,-1.582293089272436282e-01,-5.879137063366955962e-01,-4.581315398286638918e-01,1.598494320309429284e-01,2.978976291351235761e-01,5.095423348198923064e-01,-4.235980795132854859e-01,3.495180613813567705e-01,-7.005928074229551827e-02,-1.457012196911451063e-01,-8.602236914187146033e-02,-3.224657926191188961e-01,1.128653140236035857e-01,5.928378501851741533e-02,4.359893424748686463e-01,3.881254699478005055e-01,1.259662542377881431e-02
4.237944393481821170e-01,4.008602287501752959e-01,-2.921003427993164037e-01,1.888726867514731733e-01,-1.817754721801575768e-01,-3.880898950654433355e-01,-1.437517770581725751e-01,6.038376288793478180e-02,-3.525427540722685937e-01,3.652600473696206995e-01,-1.797139266732288576e-01,-8.191753377069890818e-02,-1.387211758804418049e-01,-3.440232217514270219e-01,3.496809275680782814e-01,2.445772136451555556e-01,3.973654362448210131e-01,-1.279098212365465392e-01,1.699779583128938898e-01,-3.101164368188508713e-01
1.311201656773630098e-01,4.516518513072568242e-01,5.242595104299905412e-02,2.956933557959549874e-02,1.481812852192943286e-01,2.674832955481935559e-01,2.845075907047380781e-01,3.951103048355549818e-01,-1.523881759309928668e-02,7.118559924488280198e-03,1.019196635179543675e-01,-1.911880318836320924e-01,-7.850217869637929335e-02,1.736541417162675849e-01,-8.060229908890702288e-02,-4.513835519862092194e-01,-4.679198704012071386e-01,3.407919108761495730e-01,-4.550463785706875264e-01,8.319308612335388209e-02
4.222995381828815731e-01,-9.803026234077759360e-02,-4.269540358097524413e-01,4.213939741389836069e-01,2.387096040129711716e-01,-5.892681659981648945e-01,-7.231069533345330091e-02,3.670813214716902584e-01,2.586572519139888060e-01,-1.829917272023236785e-01,-2.215896534237952326e-02,5.791880183590609743e-01,-7.577486359547205841e-02,3.614379647191344191e-01,2.529017500938071095e-01,1.237314150259245446e-02,2.121973924603746953e-02,4.743532872705434333e-01,-6.254414137838072707e-02,-1.190909264841314291e-01
4.006589091857725160e-01,-1.605574515046336581e-01,-5.120903232977912500e-01,7.926350117816892416e-02,-5.004863688052711979e-01,1.512584721564511347e-01,-2.918438760121197517e-01,-8.857238774298416273e-02,6.198532406788550553e-01,-1.657956876424228065e-01,3.035846267684657110e-02,2.662284899735121724e-01,3.125839212046249704e-01,5.747329098063733710e-01,3.228129198071814088e-01,-4.095840088578771993e-02,-3.071215488582877962e-01,2.013280131954885144e-01,-2.677003119586431334e-01,4.419433754811946669e-01
-1.337183811823794977e-01,2.317232911146726027e-01,-5.348936798531596093e-01,2.462008258535756389e-01,-1.974807159826680509e-04,1.165147903708994570e-01,-6.432391685269144288e-01,-1.536638040706429231e-01,3.117610374868690082e-01,1.219314835461577096e-01,2.677400575288720885e-01,-3.440186699220421640e-01,3.316492377645020584e-01,1.655052692644768952e-01,2.504844034200564007e-01,-4.290799041948376580e-01,2.577091779029883761e-02,5.286283548498666995e-01,-1.662538612875930633e-01,2.806795555827619748e-01
